9996 16
the -0.067147836 0.41746017 -0.012187587 -0.010764298 -0.06923624 0.092452146 0.025456283 -0.062420074 -0.25645742 0.045698203 0.05325037 -0.085673854 0.07543016 0.021718891 -0.03234663 0.022645246
and -0.065144755 0.48181158 -0.052794714 -0.083101645 -0.05551575 0.04861119 0.021469442 -0.020377059 -0.3564285 -0.00059987966 0.008138195 -0.042908683 0.0385418 0.026094763 0.053773265 0.006625495
a -0.04489336 0.29862544 -0.062108073 -0.06495851 -0.06736377 0.09511727 0.037158497 -0.00956923 -0.43238944 0.10459954 0.08705011 -0.061682947 0.040992964 -0.0019137473 0.0013509291 0.10411878
of 0.055650476 0.4537939 0.032241907 -0.20086971 -0.053675793 0.0461944 0.041735046 0.055559654 -0.45003104 0.030572666 -0.04687267 -0.065555654 0.008399612 0.11604115 0.036612496 0.0015846174
to -0.049052786 0.38798735 0.046733443 -0.12869379 -0.0358262 0.019025348 -0.050612047 0.03711145 -0.23869422 -0.0036162524 -0.035119966 -0.05286453 -0.06563932 0.056624107 0.06482351 -0.031671774
is -0.009175262 0.19631685 -0.07038231 -0.037052736 -0.04999042 0.024685545 0.07994983 -0.05804944 -0.057551872 0.010170492 0.011312681 -0.020547716 0.010943477 -0.019660596 -0.0068301116 0.0067629223
br -0.011842743 0.3993119 0.029023768 -0.12823859 0.048896782 0.023296477 -0.03346021 -0.009215573 -0.15536165 -0.03886281 -0.06111235 -0.053887803 -0.048201103 0.01346136 0.026345717 -0.02644257
in 0.010088238 0.3545387 0.005563242 -0.025375394 -0.035807878 -0.00470338 0.058532905 -0.0043572127 -0.21128102 0.005452128 -0.010744156 0.010965158 0.047535412 -0.02916973 -0.03887825 -0.022653392
it 0.013359532 0.28685504 -0.014613971 -0.010259527 -0.06450128 -0.0066686887 0.037939563 -0.042161368 -0.07598489 0.0006845062 -0.048971284 -0.021362541 0.03071354 -0.0014973115 0.018467342 0.011625676
i 0.048146863 0.16094221 -0.018622033 -0.01570273 -0.0045340527 0.032522496 -0.03168846 0.007092417 -8.832614e-05 0.033218767 -0.015492804 -0.004752585 -0.050106827 0.062420174 0.06719362 -0.056555744
this 0.0731423 0.2842657 0.043768335 -0.12578666 0.055797096 -0.033638306 -0.0061796946 0.018548146 -0.08923647 -0.09245816 -0.023472331 -0.00068058143 -0.035596572 0.044912085 0.09445321 0.0031846697
that -0.012098419 0.03019226 0.020320566 -0.0047722785 0.044202704 -0.07133294 -0.040960044 0.035656773 -0.031450786 -0.032714915 -0.023567555 -0.007160296 -0.05275293 -0.016469829 0.027936762 -0.003971491
was 0.049246065 0.12632339 0.032660145 -0.015842361 0.014527639 -0.07204017 -0.06352886 -0.001952438 -0.1356383 -0.006145336 -0.008485479 -0.010629418 -0.011102887 0.09814099 0.09146755 -0.05510017
as 0.045344565 0.2064223 -0.011281623 -0.08158246 0.03877513 -0.050438225 -0.024779487 0.039822023 -0.16901495 -0.05612827 -0.013018298 0.03235858 -0.06579624 0.081093565 0.06924103 0.036829807
for 0.015653392 0.19260046 -0.034186035 -0.042170163 -0.04091845 0.049246747 0.01295145 -0.04994246 -0.05338031 -0.02282514 -0.007817959 0.0019325013 -0.050403368 -0.0015275622 0.06571042 0.010527199
with 0.026526231 0.14026588 0.051723976 -0.12220267 0.081156 0.01944659 -0.043840416 0.039404232 -0.0755241 0.0267196 -0.09234816 0.021938268 -0.019162288 0.03632916 0.03451578 -0.026621085
movie 0.0919454 0.2598854 0.027813613 -0.04954612 0.05514986 -0.06414692 -0.060046453 0.09648085 -0.20042326 -0.08484324 -0.10414993 0.052636188 -0.07555533 0.11165288 0.10487472 -0.008621482
but -0.0028465404 0.18738502 -0.042585127 -0.034875367 -0.023747522 0.07976925 0.04112029 -0.030114213 -0.34465882 0.11355383 0.05030423 -0.09048386 0.083285816 0.063599594 -0.04469529 0.06506762
film -0.02604177 0.33190867 0.043196272 -0.06532841 -0.005259268 -0.03501439 -0.040966954 0.023417154 -0.089023985 0.049244862 -0.0027219313 0.00838316 -0.025272742 0.050091337 0.0059683262 0.033913612
on 0.03556775 0.23571774 0.031057576 -0.06354679 0.060823143 -0.06313878 -0.017432343 0.0290882 -0.112564564 0.025741644 -0.05632021 -0.02225709 0.0066400287 0.027790427 0.04178958 -0.032948345
not 0.02276286 0.23246972 -0.0035759031 0.026290765 0.018816117 0.0065104757 0.008789256 -0.009888273 -0.086097345 -0.050020725 -0.037013724 0.07339659 -0.023494486 0.06820909 0.033254288 -0.009377345
you -0.008254034 0.33387232 -0.05482832 -0.14070062 -0.058035437 0.026995942 -0.0492556 -0.026770279 -0.20235363 -0.0031957075 -0.0108711235 -0.008962745 0.049216967 0.09489706 0.0084456615 -0.00091320684
are 0.0709028 0.20810969 0.060792677 -0.057703204 0.043137327 -0.064140536 -0.049029134 0.06097342 -0.14040084 -0.08645969 -0.014268636 -0.0130915735 -0.011716565 0.08770746 0.05937166 -0.08471989
his -0.028473604 0.28703916 -0.025677508 -0.028871235 -0.11073095 0.02649206 0.06067139 -0.09514775 -0.2703941 0.07464739 0.07438224 -0.037695117 0.075649984 0.0013211579 -0.061772417 0.09424927
have 0.005669764 0.121450245 0.027952371 -0.06376288 -0.00055530615 -0.0075879605 0.008635229 -0.002194027 0.019615408 0.007347966 -0.013022987 0.024675537 -0.039451852 0.0412004 0.022469312 0.019812748
he -0.03327926 0.2232728 -0.0033946044 -0.056809835 0.012608871 0.0040917336 0.011144381 0.039815053 -0.09454717 0.043185227 0.0005535414 -0.03297721 0.02795245 0.03185089 0.017230012 0.040195804
be 0.041604307 0.26505446 0.004183592 0.0053121415 -0.042814672 -0.02437875 0.008583862 -0.019947486 -0.08503385 0.050714605 -0.036316153 -0.0014557651 -0.01023857 0.060193326 0.058532946 0.020523967
one -0.011840523 0.3699109 -0.01962165 -0.31717455 0.0035708009 -0.0059989817 -0.03486092 -0.014567414 -0.24456276 -0.016471865 -0.060312852 -0.027666364 -0.064510494 0.11678072 0.12828721 -0.008289969
all -0.052773405 0.37844607 0.0019633027 -0.07842868 -0.032941256 0.08584283 -0.020570531 -0.03805619 -0.22469832 0.040208228 0.0010571196 -0.06406086 0.060831595 0.017447364 0.042436708 0.08915407
at 0.006298626 0.15204248 -0.009029169 0.014467258 0.020173527 -0.023355788 0.007029328 -0.026074108 -0.079429574 -0.033373952 0.009361055 -0.026790326 0.029036883 0.08037508 0.02204479 -0.017116847
by -0.008303643 0.22157478 -0.050746255 0.026608502 -0.027605578 -0.024615565 0.045297384 -0.0031017526 0.021013508 0.0048040133 0.027220441 0.03316806 0.025366645 0.03396683 -0.035969295 0.046301745
an 0.04028402 0.14263718 -0.040062375 -0.03958063 0.004019286 0.03044909 0.006667571 -0.012083162 -0.14471461 0.03727341 0.02013215 -0.03603075 0.021766655 0.05408764 0.014177319 0.01835445
they 0.05839756 0.122988775 0.021398872 -0.017677072 0.05027785 -0.03685982 -0.06673852 0.042714264 -0.019253658 -0.043289073 -0.044232752 0.010704721 -0.0074505364 0.06816925 0.014219333 -0.022905204
who -0.05722464 0.11463165 -0.08135958 0.06241153 -0.040604185 -0.018357938 0.06812574 -0.065457135 -0.045258608 0.03633717 0.017238205 -0.030576827 0.056612253 -0.033970986 0.008470663 0.027337642
so 0.06866369 0.0872185 0.04034545 -0.09006508 0.0424791 -0.047018584 -0.034700025 0.09955023 -0.085255995 -0.08101707 -0.0891862 0.046838764 -0.07718705 0.08367652 0.065385744 -0.043950476
from -0.010459898 0.024835272 -0.009732448 -0.07498457 0.07211773 -0.01446158 0.013558332 0.038915034 -0.015904104 -0.077258326 -0.016921947 0.035982046 -0.009155279 0.01711858 0.08065074 0.010585012
like 0.03455419 0.23108909 -0.053650152 -0.037986726 -0.023587698 0.0123044355 -0.012735559 -0.024652034 -0.08083606 0.023922969 -0.03269591 0.016328154 0.0005123018 -0.032401923 -0.0069096503 0.0346421
her 0.010147488 0.19448212 -0.03062514 -0.13345848 -0.0013446257 -0.012394166 0.037227396 -0.03704306 -0.08433044 0.02394934 -0.068543114 0.007348931 -0.021160657 0.03031868 0.01359427 -0.03744122
or 0.038514663 0.1778391 0.0034338434 -0.14943223 0.071062185 -0.06383539 -0.058179144 0.09316482 -0.13271709 -0.064287625 -0.029432327 0.056563795 -0.013651384 0.07532475 0.05543596 -0.07109697
just 0.042488065 0.08911908 0.07647237 -0.036057305 0.064810164 -0.05656573 -0.07442179 0.059584077 -0.07400361 -0.08178813 -0.019998724 0.029106349 -0.009776283 0.122701794 0.044127166 -0.07458939
about -0.015117607 0.060774263 0.02962871 -0.040872414 0.035295118 0.02072718 -0.05109222 0.015900765 -0.006303333 -0.002544476 -0.057491362 0.0007751647 -0.008720605 0.047457505 0.06740142 -0.03795086
it's -0.018206285 0.21502449 0.030614862 0.03388199 0.006359649 -0.012361166 -0.05460578 0.04803588 -0.06513898 0.007246417 -0.042120565 0.014901041 -0.035645887 0.010265965 0.012146565 -0.07006512
out 0.031700596 0.25353977 0.06553617 -0.2434436 0.08418676 -0.036299396 -0.023395883 0.116602175 -0.2728132 -0.06726825 -0.08251367 0.06448438 -0.06351658 0.1237266 0.104305334 -0.023390712
has 0.070892766 0.08919866 0.078979835 -0.05914973 0.064921506 0.01751749 0.02333021 0.06703021 -0.018723173 -0.061872534 0.016576476 0.06450348 0.006812579 0.017630743 0.052532982 0.018741194
if 0.029469533 0.16735463 0.0357449 -0.065572925 -0.016771894 -0.0029559603 0.065242514 -0.03179466 -0.17378703 0.009312892 0.051151626 -0.049487703 0.031951796 0.019941742 0.03635644 0.04663035
some 0.030439988 -0.030269448 0.062207136 0.049015544 0.051378727 -0.090137355 -0.08426899 0.049082845 0.035474207 -0.078985594 -0.05217132 0.012925728 -0.02929634 0.08869033 0.08452924 -0.035623882
there -0.026611144 -0.036236446 0.065479465 -0.06373514 0.046464346 -0.020297887 -0.015395427 0.032396417 -0.08367614 0.0015476374 -0.034727134 0.048072673 -0.07273816 0.08912625 0.07123096 0.014223319
what -0.050485484 0.10859395 -0.038832124 0.07925237 -0.049827926 0.043355864 0.036666058 -0.09087961 -0.008352621 0.06470793 0.05647455 -0.09568917 0.06063372 -0.0641738 -0.022466272 0.020846602
good -0.023166295 0.100201294 -0.03731291 0.016743377 -0.04415534 -0.034227747 -0.040564924 -0.015526932 -0.16055568 0.006590235 0.026522012 0.009382256 0.0350938 0.01475989 -0.025443882 0.03995841
more -0.0018893474 0.3028022 0.02494787 -0.10661472 -0.03599527 0.036195546 -0.037968922 -0.027102131 -0.1767563 -0.017919615 -0.02539974 -0.05852321 0.0071791313 0.09477586 0.0015419972 -0.00028671673
when -0.026671443 0.12781194 0.014274056 -0.009874509 -0.08385612 0.0009269271 0.05972479 0.0116647445 -0.04100296 0.058809076 -0.0027387205 -0.020752762 0.0025413597 -0.015500027 -0.022099871 -0.019938547
very -0.028552284 0.17843363 0.040223937 0.049486868 0.026647825 -0.010025717 0.043725822 -0.034697335 -0.058000915 0.0339077 0.020011982 -0.027845358 -0.014539279 -0.025195362 -0.029516192 -0.016347183
up 0.0062559764 0.2105705 -0.028836468 -0.048204325 0.02865746 -0.017662203 -0.040696558 0.007462074 -0.016323037 0.03768191 -0.02916254 0.006664819 0.0056055365 -0.016132163 0.01432066 -0.033377875
no 0.022248378 0.044355974 0.034002386 0.0069951736 0.07000625 -0.06796335 -0.04629547 0.098528564 -0.022197593 -0.039868824 -0.007911988 0.022342183 -0.06476824 0.06921461 0.08118742 -0.069909535
time 0.01095091 0.15888198 -0.023782745 0.060430516 -0.017746244 -0.013761967 0.04375736 0.012847701 0.002655113 0.030825458 0.035201423 0.070305236 -0.06478346 0.0122545 -0.014555477 -0.018123528
she -0.07387753 0.1509556 -0.093792714 0.065180644 -0.046775173 0.12235587 0.069325164 -0.050442405 -0.060624287 0.031779684 0.035377003 -0.07998333 0.079006836 -0.03516112 -0.050677314 0.047398098
even 0.035756286 0.099881515 0.05630552 -0.058141854 0.059881408 -0.015068335 0.020056333 0.035054088 -0.16102111 -0.010968519 0.00016855418 0.02277497 -0.019861026 0.040764343 0.016953176 0.001685183
my -0.008751049 0.2922951 -0.0057548345 -0.17022906 0.011107174 0.014731666 0.062661424 -0.064645894 -0.19926807 0.08825863 -0.020249777 -0.027180407 0.03456323 0.010324717 0.015201684 0.012191623
would -0.05631344 0.23487538 -0.064311914 -0.028241958 -0.02257054 0.031550664 -0.007901473 -0.0032169097 -0.14490099 0.0070120767 0.018381502 -0.09411641 0.006015065 -0.030117262 -0.053926438 0.00278125
which -0.035797864 0.046214696 0.0030875136 -0.043229043 -0.033097744 -0.016809838 -0.01506352 -0.011371537 -0.0958778 0.019245788 -0.015171226 0.0044724364 0.002068668 -0.0047673993 -0.027105264 0.056936592
only -0.02239086 0.11858255 -0.031270333 -0.01971431 0.038235776 0.027333414 -0.042193104 -0.016805923 -0.06166708 0.04930757 -0.000850782 -0.061152086 -0.016480237 0.056188006 -0.014456361 -0.032955587
story -0.029474182 0.10440549 -0.011737048 -0.011858736 -0.056479484 -0.015919251 0.006288119 0.034424372 -0.0014424755 0.035238657 -0.012429716 -0.041343335 -0.00914095 0.035512015 0.011037771 -0.020554518
really -0.025124043 0.16137849 0.055029847 0.0404308 0.006419739 -0.01430144 -0.02155385 0.0037640007 -0.059526376 -0.052001566 -0.05041862 0.024040097 0.016389268 0.02338911 0.049304586 0.014164433
see 0.015822288 0.18091379 0.016459914 -0.02089884 -0.037249498 -0.038132943 0.01576619 0.018170083 -0.040469803 0.02831904 0.025762971 -0.060133416 0.021376973 0.05956744 -0.012760332 0.01630319
their -0.045636036 0.29609627 -0.016007565 -0.004513428 -0.067708954 0.037565086 0.0133998105 -0.09671128 -0.16970287 0.038967125 0.057211105 -0.07531239 0.028528355 -0.030660642 0.013459246 0.042118467
had -0.011137701 0.27330518 0.021238718 -0.16749682 -0.00907351 0.05944373 0.023334011 -0.05408838 -0.13023898 0.07974274 -0.022357272 -0.06938969 -0.042916056 0.027315376 -0.01921493 0.048564687
can 0.044473045 0.18852869 0.020695468 -0.036573697 0.046046924 -0.037804488 0.02547651 -0.009044489 -0.04640346 -0.03430472 0.02156864 -0.028574023 -0.033422086 0.02195097 0.031539593 0.015492933
were -0.04504728 0.011701839 -0.0055295476 -0.01581582 -0.04718828 -0.01154901 -0.039845105 0.044463675 -0.030384166 0.039180268 -0.021165032 -0.016441165 0.00089637336 0.03740659 -0.04097887 -0.02152029
me 0.0732564 0.14870349 0.068484455 -0.088885665 0.08424875 -0.020329028 -0.0024159518 0.026873631 -0.15171333 -0.02815583 -0.07912277 0.037492756 -0.069266185 0.059193112 0.088847436 -0.047822237
well -0.08039256 0.24218547 -0.05822219 -0.10308058 -0.07570803 0.07523648 0.048542313 -0.07061892 -0.20505773 0.094357364 0.05144031 -0.0977383 -0.011049832 0.033080835 0.005098516 0.03518436
than -0.03142343 0.18429776 -0.031151041 -0.024534106 0.05128908 0.029140135 -0.007091721 -0.014797693 0.008004961 0.028829735 -0.035206016 0.032476842 0.028157987 -0.01250792 -0.024061617 -0.02785702
we -0.11079805 0.123304375 -0.04048466 0.030336129 -0.1432283 0.12403989 0.0909064 -0.043082897 -0.07793084 0.113619134 0.10761598 -0.054336585 0.10320262 -0.044637837 -0.07630111 0.06767855
much 0.023575932 0.20851167 -0.018824518 0.011125589 0.0011678134 0.020640774 -0.025548683 -0.020942904 -0.021692796 0.032144085 0.019956319 -0.08720996 -0.018120995 -0.032845113 0.014387551 0.04580185
been 0.05161481 0.2501327 -0.03756136 -0.02663767 0.024638578 0.04213927 -0.016310979 0.013090259 -0.13385631 0.041183174 -0.055554226 -0.023674069 0.013993525 0.01426054 0.0023070548 -0.015247172
bad 0.1517375 0.02299543 0.23106308 -0.14376777 0.21195155 -0.13632876 -0.13041638 0.14861976 -0.1517629 -0.16080987 -0.15773843 0.16941668 -0.1478097 0.18431807 0.14850324 -0.16561066
get 0.03534578 0.1462073 0.04234031 -0.038754374 0.07400523 -0.009982751 -0.06760264 0.0017821556 -0.061242167 -0.01616042 0.00022438083 0.040252555 -0.022090793 0.030837404 0.090648234 -0.013677635
will -0.027346216 0.32680234 -0.036263667 -0.21414694 0.003158826 -0.011720949 0.043179907 -0.07427939 -0.28461245 0.079678625 0.008880802 -0.04074575 -0.024846353 0.09002234 -0.014778353 0.050641946
do 0.011978428 0.19983315 0.0258859 -0.14678328 -0.040104993 0.027449843 -0.03429359 0.054559097 -0.24795274 -0.004371529 -0.011953356 -0.050551977 0.0028170974 0.049535867 0.059088398 -0.043166973
also -0.02365687 0.2940868 -0.013368934 -0.13906772 0.011437425 0.040084444 0.023864647 -0.042077497 -0.1914467 0.0927581 0.039759375 -0.100907505 0.0044562193 0.083039925 0.02422761 0.017276281
into 0.014221242 0.1130553 0.0071796896 -0.0432604 -0.00094051927 0.017042955 0.030813517 -0.018070236 -0.1441252 0.020677164 -0.004947908 -0.036671564 -0.01658643 -0.015832499 0.069096036 0.007482514
people -0.0051484574 0.1203437 0.012697466 0.034366775 -0.03448299 0.026779512 0.03249805 -0.035779808 0.029626409 0.06808785 0.01727803 -0.073920965 -0.006864554 0.005502593 -0.030084992 0.040196646
other -0.06701506 0.24142048 -0.053520147 -0.19371706 -0.09148843 0.024071116 0.020231264 -0.08160776 -0.09051603 0.07383909 -0.034000486 -0.06660838 -0.024341924 -0.004748324 0.010632108 0.050185423
first -0.001688867 0.17096698 -0.015778566 -0.12999155 -0.012690509 0.05566334 0.030399332 0.02603862 -0.26139408 0.050838258 -0.048938118 0.0015496255 -0.074399136 0.104849495 0.008888651 -0.009756
great -0.019310843 0.11335658 0.040364306 0.015372454 0.029053805 -0.0044400427 -0.032001443 0.053380374 -0.12518317 -0.06897939 -0.07221228 -0.016165154 -0.030718856 0.034803357 0.045249764 -0.05145449
because 0.09372091 0.032245506 0.06379977 0.01685557 0.06664698 -0.05593051 -0.04386636 0.038042963 0.0053637805 -0.014473659 -0.058423996 0.085280225 -0.10007815 0.079519406 0.039259877 -0.046737045
how 0.08062982 0.020950314 0.029142434 -0.085002266 0.1096159 -0.049617488 -0.035635117 0.042456433 -0.079603344 -0.028038282 -0.08435487 0.021632912 -0.04966077 0.044550296 0.03852973 -0.03232669
him -0.023158923 0.25826126 -0.07069768 -0.055853646 -0.10846018 0.0774422 0.04993107 -0.090911396 -0.20471333 0.09974048 0.08716263 -0.06816159 0.010973106 -0.010692958 -0.045715082 0.045227133
most 0.00045195516 0.29863888 -0.04504799 -0.12268654 -0.0021418557 -0.00070533983 0.015206935 -0.048274454 -0.27422407 0.02132057 -0.04076819 -0.054529727 0.0038960173 0.06699578 -0.0047989856 0.08412228
don't 0.0024252916 0.14147343 0.04129551 -0.03719093 -0.03294717 -0.003135809 0.012085959 0.005786091 -0.043790735 0.013008081 0.010452958 0.01434925 -0.016338943 0.053814586 0.035648085 0.04963091
made 0.036502104 0.14854214 -0.011418858 -0.11270312 -0.0023617055 -0.009643913 -0.008048763 0.07510966 -0.10856023 -0.0077978224 -0.03299757 0.030713426 -0.049637392 0.0542135 0.0023631146 -0.048190575
its -0.06513278 0.35351676 -0.011981274 -0.1809881 -0.06916076 0.11223534 0.003200098 -0.06605161 -0.27627409 0.08951182 -0.046398368 -0.12002308 -0.018052949 0.032786034 -0.0077897855 0.050701015
then -0.008680629 0.13602586 -0.023834001 -0.06733025 -0.02249263 -0.016500684 -0.0011147277 -0.046984278 -0.10075236 0.015512112 0.016974678 -0.06918596 -0.029388934 -0.007300814 -0.011665704 -0.01902504
way 0.062441353 -0.053513277 0.028361525 0.031360433 0.015720174 -0.002440288 -0.04552854 0.007100735 0.056837235 -0.0025865207 -0.01149374 0.060704995 -0.035763014 0.0631681 0.00026283003 -0.060091373
make 0.019976841 -0.053485636 0.038846888 -0.008784164 -0.010182696 -0.007884469 -0.06627767 0.043004774 -0.084545515 -0.06563197 -0.05203004 0.028047942 -0.0018420912 0.009009584 0.032130677 -0.03273673
them -0.027817087 0.2936209 -0.09715773 -0.15430436 -0.08447556 0.10002119 -0.0064325207 -0.05781754 -0.054994155 0.090616636 0.010548671 -0.17552893 0.021163138 0.009851737 0.03425123 0.07123972
too -0.0032448093 0.24147089 -0.06575669 -0.090165995 -0.05775142 0.026568891 0.0024525677 -0.03578199 -0.111938685 0.016578272 0.05931896 -0.09221874 0.05330861 -0.012678502 0.021048954 0.020163944
could 0.017230345 0.15982138 -0.0010227513 -0.13381079 0.066931464 0.020269023 -0.015556766 -0.011884893 -0.041292235 -0.05551438 -0.083869494 0.0024887808 -0.0031802733 0.098153114 0.02594269 -0.0012946853
any 0.06714273 0.10721344 0.046048615 -0.14315552 0.03978035 -0.12794459 -0.00076290313 0.10286181 -0.20913061 -0.063567735 -0.11944698 0.09966467 -0.07213731 0.1222943 0.092921466 -0.124265596
movies 0.055523366 0.16307099 0.046441298 -0.09588059 0.021384522 0.0085912915 -0.052031796 0.035961196 -0.046917386 -0.004734959 -0.018871019 0.0068825223 -0.028582867 0.048297826 0.07214716 -0.05827986
after -0.070539266 0.37745944 -0.05357366 -0.011557081 -0.0028089692 -0.003921846 -0.031302888 0.023314904 0.0013077027 -0.0077900207 -0.012141565 -0.05360901 -0.010651674 -0.008936857 -0.051378388 0.014146831
think -0.058395103 0.06973302 -0.066035256 0.023892066 -0.054565083 0.069222614 0.056791022 -0.045973677 0.022000646 0.011160147 0.017336078 -0.04351023 0.03504525 -0.036840983 -0.07108141 -0.022245837
characters 0.011509965 0.20670801 -0.06298701 -0.17823724 -0.0801189 0.026502071 -0.0171951 -0.052389648 -0.08969928 0.027687233 -0.042293057 -0.04493002 0.0508741 0.0747624 0.049614634 0.042838737
watch -0.015168426 0.4164895 0.050933108 -0.28858757 0.024121528 0.03789428 -0.044199646 0.040265642 -0.12804393 0.023039585 -0.052254125 -0.030135758 -0.07358643 0.08539908 0.047032606 0.014023815
two 0.038235787 0.18459797 0.07197615 -0.21475296 0.055233747 -0.0018395452 0.0034594995 0.0030272775 -0.21282761 -0.045434516 -0.07904007 0.04614831 -0.019371897 0.10578228 0.07502587 -0.044135846
films 0.035181962 0.24847756 -0.029034808 -0.049098607 -0.023817305 0.012611532 -0.049987666 -0.0532396 0.05207452 -0.0041907215 -0.0077410126 -0.015017476 0.015769608 -0.03456469 0.03377764 0.02194904
character 0.073906705 0.17835501 0.043104175 -0.04637527 0.035798065 -0.056035787 -0.06853591 0.040402904 -0.13606355 -0.082529195 -0.039127953 -0.00966108 -0.007740994 0.09446825 0.057735834 -0.040250532
seen -0.025211386 0.20876588 -0.029404735 -0.102433585 -0.07055819 0.009089726 -0.043564145 0.027693149 -0.14400794 -0.027511556 -0.019083247 -0.015416093 -0.034943923 0.05467455 0.04112622 0.015808227
many 0.011407264 0.09963383 -0.04732007 0.04185743 0.004921651 0.046635643 -0.013986337 -0.029362638 -0.04489714 0.034973696 0.013719679 -7.3700744e-07 0.04792011 -0.06639927 -0.059868835 0.012019783
being -0.02836982 -0.03242532 -0.0013626369 0.05842975 0.036278743 0.0219999 0.034403384 0.028420553 -0.06552968 -0.051886834 -0.017823888 0.029776547 -0.03715033 -0.005827839 0.037016764 -0.069646776
life 0.0552783 0.25365236 -0.031361885 -0.10016465 -0.059800602 0.055878267 0.014105184 -0.021981422 -0.07498539 0.0031026325 -0.034618076 -0.08126099 0.018405287 0.098717414 0.086166985 0.077139765
plot 0.047543474 0.015419415 0.00807728 0.042160653 0.04543808 0.009300212 0.050770886 -0.015767159 -0.023944601 0.010992277 0.03870054 0.008079146 0.0495417 -0.007445423 0.03947143 -0.010041175
never 0.010698672 0.05400097 0.0046830126 -0.018546488 0.02843509 -0.018077407 0.041533418 -0.029048787 -0.03505922 0.031161414 0.03568035 0.048836466 0.045573954 0.0026403437 -0.015200471 -0.001997533
acting 0.08671709 0.14634158 0.0833065 -0.21189447 0.07503195 -0.033382103 -0.09251986 0.06776812 -0.07500566 -0.019472152 -0.10004588 -0.007235476 -0.0685987 0.09374109 0.14102426 -0.05836577
little -0.043778624 0.20812887 -0.048456512 -0.06808324 -0.05974665 0.11476537 0.03884929 -0.044842802 -0.046889115 0.05448857 0.01461593 -0.12745878 0.008975994 -0.046088923 -0.061179258 0.135922
best -0.12163361 0.3142892 -0.1217878 -0.13117956 -0.16617723 0.09370205 0.105471015 -0.07070548 -0.19696057 0.10050199 0.00402861 -0.17102689 0.026412074 0.0381457 -0.0058112973 0.16554716
love -0.056626733 0.11273331 -0.04679897 4.455096e-05 -0.047351938 -0.00031759523 0.06660651 -0.004768303 -0.024393817 0.015601139 -0.012213857 -0.07068549 0.019724458 0.0074975146 0.005659902 0.033054497
over 0.010378466 0.1769768 -0.02189271 -0.10359661 0.05060717 -0.028870795 -0.028712854 0.055347048 -0.07556442 0.03722653 -0.080400005 0.0025458096 -0.009153392 0.09852385 0.03891077 0.002775852
where -0.013571857 0.06900029 -0.008208039 -0.041162003 0.030973526 -0.025260393 -0.01456601 0.047724333 -0.006095204 -0.033873018 -0.04283657 -0.00017776243 -0.028762858 0.022390783 0.056015387 -0.0061384207
did 0.030789535 0.19618346 0.033305924 -0.022904761 0.0037572766 0.057220384 -0.009443189 -0.017291415 0.0331037 0.03203628 0.038339254 -0.032815464 -0.036572203 -0.014512054 0.036514226 -0.011844001
show -0.08953525 0.10739399 -0.016428659 0.024704969 -0.0559501 0.09460878 0.060335185 -0.05910647 -0.051714472 0.037165817 0.09328893 -0.0075205998 0.014176615 -0.021586178 -0.031931773 0.07353955
know 0.020820713 0.08416568 -0.05028122 -0.079518825 0.024797115 -0.010372767 -0.044881295 0.035760656 0.029533934 0.028194983 -0.032542307 -0.07799551 0.026611414 -0.048972983 -0.036212143 0.023435581
off 0.037568823 0.18504551 0.030921252 -0.2690983 0.06569087 0.020472677 -0.08525444 0.06711316 -0.11842613 -0.00069524173 -0.07903254 -0.018098138 -0.058966212 0.07003699 0.045022916 -0.006565761
ever 0.017164502 0.18286674 0.018905181 -0.21201147 0.096533135 -0.059657957 -0.09558603 0.08290612 -0.13687798 0.010514366 -0.068038225 0.010570424 -0.06747057 0.07560777 0.09078519 -0.08411252
does -0.062233146 0.12608548 -0.043626536 -0.026413271 -0.0055664843 0.023672096 0.09081985 -0.060776792 -0.031829257 0.0038920864 0.052374464 -0.0057584513 0.034672193 -0.013000133 -0.056466416 0.011939424
better -0.059419207 0.09922332 -0.09746719 0.0032202592 -0.045385197 0.09479429 0.10568474 -0.053221237 -0.32064018 0.069050044 0.08170843 -0.08452025 0.09287703 -0.08989349 -0.080680765 0.06991684
your 0.0659586 0.28397283 -0.027904294 -0.20161761 -0.03717084 0.0418881 -0.040860232 0.030105677 -0.05749914 -0.0121167675 -0.006518167 -0.011670426 -0.013117586 0.10485869 0.024610283 0.024347806
end -0.00638852 0.20492786 0.04419811 -0.05723064 -0.0054234387 0.053516686 -0.04513758 0.038581535 -0.023470476 -0.022844536 -0.047155984 -0.027984345 -0.01427264 0.0030040531 0.05304652 0.00796075
still -0.040091075 0.051144894 -0.092519134 0.014332966 -0.08012794 0.087154694 0.019161116 -0.02147637 -0.08588501 0.023937067 0.05536564 -0.072110474 0.06162705 -0.022496583 -0.061510675 0.0061753057
man -0.04943183 0.22292945 -0.029111262 -0.0024780233 -0.076770656 0.09293047 0.021437231 0.006146863 -0.24406944 0.061238527 -0.0348129 -0.10697649 0.04036298 0.03758158 -0.0113082705 0.096602246
here 0.0852952 -0.15095416 0.07234805 -0.11590687 0.11315615 -0.1322558 -0.07762735 0.08999107 -0.06415793 -0.12588367 -0.098667294 0.14191279 -0.08835549 0.117045835 0.07957926 -0.07836722
these -0.03604666 0.083777316 -0.0071599116 0.01189207 -0.032323834 0.013011006 0.05500565 0.034862578 0.051467277 -0.011486671 0.010621332 -0.03661723 0.048415083 -0.007989086 -0.008678008 0.010303044
say 0.08570383 -0.07185765 0.0714846 -0.13563167 0.13573183 -0.12629493 -0.038358923 0.08517813 -0.07743537 -0.09564722 -0.11521722 0.13644126 -0.06989119 0.037206493 0.06253461 -0.09122578
scene 0.014642406 0.073079 0.034468938 -0.049938243 0.04602653 -0.01977318 0.0015619968 0.10238897 -0.16700304 -0.02598818 -0.0687839 0.0132202245 -0.031338204 0.09585212 0.03955321 -0.009787407
while 0.02513414 0.079478145 0.034476724 -0.07904539 0.0015039938 0.019552998 -0.0026860593 0.067326814 -0.03343475 0.0043686037 -0.0095587205 -0.008204246 -0.03350519 0.035297196 -0.010463646 0.0126456665
why 0.014377994 0.047544163 0.046792682 0.028260158 0.04353199 -0.044253137 0.006021555 0.0061937794 0.021955218 -0.045238484 -0.06260164 0.05068821 -0.0438333 0.08842958 0.06971515 -0.052171353
scenes 0.02846993 0.09129861 -0.038872357 0.049742695 0.046832524 -0.055153824 0.016446382 -0.026412932 0.04447807 -0.04532014 -0.0024421895 -0.04128066 -0.013022046 -0.0057088444 -0.036760785 -0.0528188
go 0.02190184 -0.032166753 0.11284248 -0.1013017 0.10160795 -0.10107786 -0.088072345 0.100721695 -0.103089266 -0.058977555 -0.102574855 0.09344875 -0.044818167 0.108745135 0.10989139 -0.05791044
such 0.011299795 0.12526426 -0.02289793 -0.15254606 0.009082428 -0.069976956 -0.057642475 0.06514451 -0.057574123 -0.040657707 -0.06140135 0.013856946 -0.07203473 0.01633452 0.07850111 -0.057176877
something 0.044241797 -0.05444006 -0.00076551316 -0.10700143 0.0065069674 -0.06243208 -0.051505927 0.059145868 -0.10258812 -0.015242216 -0.08920551 0.054030806 -0.045716003 0.00429534 0.0645255 -0.07027037
through 0.017800502 0.09506292 0.008259402 -0.03188739 -0.012357973 0.03937823 0.0015020028 -0.052864525 0.047908258 0.07484218 0.009636825 -0.051793814 -0.021358011 -0.0338095 -0.04147182 0.06634282
should 0.12692893 0.042745326 0.040333427 -0.0114839515 0.11082714 -0.0987425 -0.03654024 0.04827495 -0.034394387 -0.049633622 -0.061628018 0.10043406 -0.06435719 0.03645645 0.030191956 -0.05957849
back -0.044337597 0.110700205 0.023147827 0.061914384 0.0025602237 0.031983588 0.05194113 0.037012555 -0.011078847 -0.029923074 0.019377638 0.02038177 -0.0012725559 0.0045027537 -0.035577327 0.017268753
i'm 0.07478607 -0.035293486 0.11947107 -0.035434622 0.11153414 -0.11542031 -0.09763528 0.11292319 -0.054405574 -0.11855958 -0.13472052 0.1813465 -0.14015754 0.14888564 0.061644692 -0.14814192
real -0.035715304 0.1949549 0.0069721807 -0.022320883 -0.00095284707 0.0694694 0.06788357 -0.07462173 -0.05143797 0.05440648 0.046215776 -0.085418195 -0.004257234 -0.05195146 -0.016349137 0.03302378
those -0.051024925 0.08528456 -0.010248202 -0.021909552 -0.07557694 0.017135251 0.05705891 -0.057955377 -0.08709441 0.048060663 0.00322084 -0.01122927 0.008103721 -0.032164495 -0.024831714 0.01441014
watching -0.0182806 0.0542279 -0.03221664 -0.024635004 0.0086214375 0.003124922 0.072807305 -0.039931383 -0.053655475 0.046196017 0.0052467585 -0.041049574 -0.016437845 -0.029739674 0.014328695 0.0039364942
now -0.017586708 0.18704025 -0.05718208 -0.014861046 -0.0068388935 0.040807933 0.03995333 -0.03617921 -0.007565286 0.05013143 -0.007222401 -0.049019087 0.031332258 0.00063180004 -0.0572165 0.0878974
though 0.0045935605 0.025490023 -0.05367423 0.052293487 -0.05580123 0.05440638 0.0147578055 0.011691142 -0.049519308 0.03067624 0.023307681 -0.047086135 0.064516425 -0.003673013 -0.05038474 0.06884756
doesn't -0.038408056 0.0083989985 0.021006681 0.023257947 -0.0064413743 0.018580565 0.056063615 -0.009128629 -0.0356348 0.020638872 0.050664835 -0.06853318 0.0019288677 -0.0167047 -0.023684688 -0.020271773
years -0.009378372 0.1913924 -0.05488138 -0.10266045 -0.0797717 0.07355087 -0.024018666 -0.038244598 -0.14381656 0.0050977124 -0.042065572 -0.09514231 0.0050675427 0.001447984 0.037897922 0.05726571
old -0.022104692 0.12960906 -0.017038517 0.02620954 0.019437952 0.032259777 0.012828556 0.051436678 0.036419775 -0.01821214 -0.03157362 -0.04603742 0.025716983 0.013089341 -0.009032376 -0.042378567
thing 0.14402635 0.032210864 0.064158924 -0.08398495 0.052685242 -0.09487515 -0.065648876 0.1324117 -0.09646413 -0.11785302 -0.05101599 0.09344658 -0.063854456 0.09156717 0.096403204 -0.07344065
actors -0.012337973 0.068118244 -0.0065388167 -0.030324403 0.03844576 -0.06453229 0.005138769 0.02674645 -0.083722115 -0.019909054 -0.040569928 0.004337292 -0.039817516 0.06219226 -0.00032000605 0.003829781
work -6.20114e-05 0.09198282 -0.005364469 -0.04250516 0.021200858 0.024576345 -0.044947956 -0.024165617 -0.06052113 0.0068282443 -0.03844404 -0.053134985 -0.02676425 0.042669084 0.08241545 0.023981242
10 -0.028864266 0.5733325 -0.12600948 -0.4904682 -0.11374976 0.15834011 -0.17008469 -0.005319893 -0.14205313 0.2368872 -0.15250057 -0.29461414 0.03549246 0.22823796 0.21606685 0.17698182
before 0.054570075 0.19623278 -0.01162195 -0.16605346 -0.021477604 0.017593367 0.0077145053 -0.008490014 -0.13830617 0.04628725 -0.06305295 -0.068722196 -0.029837457 0.050014447 0.09612126 0.074381255
another -0.028720492 0.081835285 -0.019974219 -0.03760826 -0.0534449 0.06159829 -0.013008374 -0.068479955 -0.09745035 0.02981902 0.043873284 -0.00020823069 0.0010589667 0.017232917 0.011342692 0.052499477
didn't 0.029114755 0.039059814 0.0668875 -0.042855993 0.1263841 -0.0685275 -0.058652066 0.043808106 -0.053976677 -0.053541973 -0.0395607 0.10297593 -0.12367824 0.077798 0.065004356 -0.09955468
new -0.06945192 0.027100371 -0.019139977 0.081258275 0.025448754 0.04518355 0.079323456 -0.051198356 -0.11518571 0.02058694 0.0654548 0.04585663 0.051560104 -0.025329582 -0.042700734 -0.050900914
funny 0.05842589 -0.03810564 0.031410836 0.014615426 -0.011897584 -0.016638571 -0.026895644 -0.0036597452 -0.011414235 -0.05305747 -0.019659495 0.0009623904 0.020448644 0.022751294 0.03403129 -0.06656515
nothing 0.003364614 0.12510695 0.045636576 -0.060476214 0.0780679 -0.07366321 -0.009393098 0.04112585 -0.072659664 -0.015961794 -0.026585136 0.07958141 -0.092165515 0.117344424 0.083125494 -0.08906737
actually -0.021284102 -0.015184637 0.048541367 -0.01608445 -0.013122837 -0.05552625 0.0014066158 -0.00858248 0.0019046026 -0.011318118 -0.033038963 0.003168213 -0.0024094386 0.0576494 0.05706004 0.012021809
makes 0.0035772957 0.21736299 -0.0018025683 -0.022064835 -0.029911865 0.049745653 0.013452803 -0.031712342 -0.10427684 0.009330013 0.052243736 -0.06348224 0.016768824 -0.019579884 0.044143826 0.007986487
director 0.030053841 0.13472635 0.11769389 -0.050813258 0.11262801 -0.051899135 -0.054426916 0.06809479 -0.15689205 -0.028775616 -0.116023116 0.044779938 -0.052771866 0.039964482 0.098062195 -0.07769593
look -0.025983648 0.036067147 -0.006010807 -0.0021805174 0.009609853 0.046725906 -0.035282634 -0.0491874 -0.037637662 0.0532296 -0.0032022202 -0.008877938 0.009708795 0.005511358 0.0051198592 0.026348677
find 0.09770454 0.115145944 0.018926289 -0.072795264 0.09580847 -0.017494222 -0.09105649 0.022972438 -0.017863877 -0.06682185 -0.10513399 0.029211257 -0.061614823 0.09156641 0.10651314 -0.033577807
going -0.041952077 0.18288511 0.020194732 -0.046184875 -0.030484168 0.06830837 0.043880656 -0.055484936 -0.11976358 -0.008362758 0.048723765 -0.009086726 -0.021075206 0.010935092 -0.02908344 -0.00576674
few 0.06070514 0.11076526 -0.008827866 -0.00071243406 0.023126828 -0.0034667968 -0.030230375 0.05843125 -0.06420221 0.018056972 -0.055071943 0.0012452465 -0.06538419 0.037799682 0.06676929 -0.03878981
same 0.07815743 0.05909066 0.094014965 -0.038576666 0.06367915 0.0272879 -0.0049538515 0.028222365 -0.09892909 -0.02141688 -0.05813749 0.017011486 0.009301892 0.005632573 0.06652855 0.005745181
part 0.043750595 -0.043247767 0.039939355 -0.058253992 0.09899766 -0.108477965 -0.10508958 0.074881025 0.03472006 -0.10533632 -0.09146737 0.070524625 -0.05595423 0.08460905 0.058201935 -0.050328985
again -0.06725471 0.26177743 -0.094474696 -0.06182782 -0.03796776 0.018636703 0.014728513 -0.062717855 -0.1855465 0.11087705 0.02820031 -0.07124702 0.0760006 0.010050484 -0.0090062395 0.04995974
every 0.019351285 0.108466215 0.013033732 -0.030722547 -0.025448907 -0.006765421 -0.02653005 -0.0025954042 -0.11998852 -0.00078039506 0.00907777 -0.015374113 0.052158628 -0.035885286 0.027324649 0.0101550035
lot -0.0045629363 0.07391175 -0.018163798 -0.00900463 0.028082073 0.040347975 0.058579415 -0.0703681 -0.09231688 -0.0058558155 0.034990266 -0.03156108 -0.00042906156 -0.06040819 -0.03798113 0.066825956
cast -0.018937191 0.1457378 0.035995133 0.020500192 0.020373318 -0.0041584903 -0.023712024 0.016674565 -0.047348898 -0.017217513 -0.0076728896 0.004598308 -0.0078056613 -0.014302034 -0.05190596 0.04269139
us -0.0492547 0.044409614 -0.06467603 -0.14151385 -0.009775284 -0.017515399 -0.0123645 -0.050769657 -0.16641083 0.05803818 -0.027150342 -0.036108322 0.0035093413 0.024262266 -0.057205934 0.034570508
quite 0.011683668 -0.06730707 0.0007260976 -0.030635417 0.015718509 -0.009327554 -0.02920918 0.026066776 -0.08971725 -0.0061048674 -0.02254508 0.08544679 -0.06070748 0.052430786 0.07445522 -0.05602255
down 0.01759639 0.15005381 -0.026185172 -0.09367457 -0.019172745 -0.02697735 -0.0555063 0.035588387 -0.08145758 -0.0054016653 -0.053634636 0.0012888089 -0.008180903 0.06389156 0.08286795 -0.013163693
want 0.05232976 0.08213569 -0.008789433 -0.0761711 0.020669565 0.031159673 -0.07812253 -0.01438948 0.021444418 -0.024044309 -0.032996383 -0.023559568 -0.01547737 -0.012962678 -0.013714965 0.03168923
world 0.029465 0.0792874 0.08976939 -0.09139444 0.043298826 -0.07248721 -0.113473445 0.13636464 -0.074997246 -0.0673155 -0.10561076 0.10963472 -0.062607735 0.14531341 0.08667631 -0.043159384
things 0.010258108 -0.040342964 -0.00036881206 -0.10410696 0.023022786 -0.037683047 -0.026307316 0.011268672 -0.14171925 -0.00096829224 -0.06295868 0.04645328 -0.0800906 0.0974305 0.050613817 -0.07014169
pretty 0.030204957 0.2502128 -0.0032850965 -0.13983338 0.04101239 0.026465122 -0.0091332905 -0.04186195 -0.15510288 0.005402671 -0.07045082 -0.0137551185 -0.036213808 0.13770823 0.13037276 0.05045349
young 0.00041298315 0.15124151 0.070852526 0.009462871 -0.028635329 -0.043240897 -0.04460561 -0.014067525 -0.11031757 -0.047952935 -0.07647799 0.027886707 -0.051415227 0.00037248016 0.022678986 -0.021737704
seems 0.00091642246 0.100532964 -0.020112611 -0.11653494 0.02107143 -0.04208237 -0.03287905 0.00019616607 -0.12191396 -0.02308463 0.005006113 0.03421429 0.013243453 0.04196611 -0.0041090515 -0.01658712
around -0.00317973 0.28093502 -0.05617607 -0.10472781 -0.047464244 0.07403319 0.04479277 -0.06462603 -0.17639998 0.053966586 -0.025225468 -0.15524153 0.037347477 0.09179613 -0.023937926 0.13217695
got -0.013388454 0.017488394 -0.01687843 0.05256236 0.015970862 -0.008632317 0.026704835 -0.018816177 -0.0067028985 -0.0058241766 -0.021156574 -0.033202816 0.04695266 -0.014406448 -0.006238273 0.036238085
horror -0.022650713 -0.007528435 0.013763315 -0.050269 0.042226847 -0.0074895043 0.01899892 0.012971704 -0.0464226 -0.07273794 -0.0778874 0.050170265 -0.07037445 0.013070452 -0.016515445 -0.0524194
however 0.03239116 -0.057562552 -0.014622921 0.018902706 0.0013156268 -0.023792077 -0.025815431 0.046442468 0.015320957 -0.0413614 -0.021441849 0.009641678 0.013585058 0.055544812 0.016616346 -0.010410569
can't -0.043977853 0.0018559552 -0.043516114 0.0008516239 -0.06007817 -0.017938774 0.048740458 -0.010675766 -0.04250938 -0.0014095817 0.043769557 0.056146823 -0.0070308694 -0.019739423 -0.01610787 0.022196963
fact -0.006172578 0.06609916 -0.017686313 -0.11102925 -0.037692066 0.016306069 -0.039895054 -0.014607521 -0.14829908 -0.06818297 -0.05570413 -0.009607043 -0.049398497 0.07007078 -0.010504418 -0.010860716
take -0.044806935 0.16884403 -0.048407067 -0.029420683 -0.062334318 0.0026426446 0.046112794 0.006371223 -0.11369153 0.043989554 0.018822579 -0.010309255 0.030568482 0.052444387 -0.043814395 0.078347854
big 0.02048749 0.023191392 -0.04543061 0.010002832 0.0260486 0.04722648 0.04125439 -0.038824327 -0.074315034 0.014434702 0.071327716 0.011245251 0.036603417 0.020513482 -0.08081638 0.031104278
enough 0.062484905 0.027279606 0.065866396 -0.02160457 0.06011526 -0.068051375 -0.078535765 0.0034112108 0.018160587 -0.036877256 -0.04576492 0.06872012 -0.06803955 0.021607358 0.0159487 -0.05701532
long -0.10025847 -0.12024454 -0.0699165 0.049372867 -0.023738993 0.063729025 0.061563328 -0.037659217 0.085516326 0.053595643 0.04664992 -0.050293718 0.06928206 -0.07422732 -0.061637502 0.061537452
thought 0.016765244 -0.052207943 0.09800864 -0.059580613 0.018586725 0.0022318694 -0.052676212 0.03103787 0.05451793 -0.057099126 -0.031109177 -0.005913275 -0.071330965 -0.00685761 0.07044933 -0.0086681815
that's -0.027780265 0.2000651 0.059276246 -0.17089581 0.020268202 0.0068391245 -0.04296725 -0.030156234 -0.16263804 0.012717386 -0.059585698 0.018609416 -0.06318639 0.062041223 0.07248963 0.01096676
both -0.042763185 0.18996295 -0.005430617 0.037676938 -0.06354795 0.0822803 0.030730302 -0.08554206 -0.18983458 -0.0017050002 0.024498561 -0.09449482 0.009085069 0.038679842 0.020699192 0.049376212
between -0.03154952 0.09606791 -0.014224123 0.017627118 0.008297659 0.077597626 0.027559768 -0.07665103 -0.068164356 0.012289924 0.03201796 -0.085900776 0.06798243 0.04905214 -0.04946843 0.06489567
series -0.047856145 -0.045198355 -0.00907844 -0.0048524486 -0.043238062 0.023892531 0.040817767 -0.048510153 -0.083392814 0.0362914 0.02993987 -0.05180039 0.016281307 0.0075813886 -0.09013779 -0.005381912
give -0.024833554 0.2153663 -0.068646856 -0.038186364 -0.0019022968 0.02797031 0.030578883 -0.06311776 -0.19893636 0.035439793 0.010771042 -0.08313438 -0.03686695 0.0541907 0.064828746 0.03706089
may 0.04248385 0.101830214 -0.0106451325 -0.043803122 0.051187824 0.040791824 0.05307058 -0.01699907 -0.024361221 0.00691186 0.048154145 0.04857511 0.036443725 0.046850644 -0.040460873 0.019630034
original -0.01457681 0.1834991 -0.00872152 -0.059790157 0.029904041 -0.058019143 -0.030153118 0.022333313 -0.0727179 -0.04460994 -0.03710959 0.039589282 -0.057256803 0.028466308 0.08586616 -0.030633872
own 0.0023930701 0.132476 0.038316898 -0.09622257 0.04674642 0.011683825 -0.06572068 -0.0016145639 -0.20318142 -0.057456926 -0.028512662 0.0056042955 -0.0058398913 0.06016681 0.012397221 0.011107274
action 0.018689103 0.12237401 0.0040061395 -0.10743424 -0.04674291 0.07057395 0.040826816 -0.01671704 -0.13640025 0.06380388 -0.046546806 -0.10294411 0.01354191 -0.025356473 -0.0243181 0.03319702
i've 0.004338018 0.26235953 0.023414189 -0.24628547 0.024241734 -0.0029022815 0.032741964 0.020665755 -0.1383955 0.06894081 -0.0529118 -0.009878323 -0.052903704 0.09377714 0.015487111 0.018355511
right -0.055111367 0.18691985 -0.07600231 -0.0323225 -0.01817122 0.05790036 -0.015173185 -0.053296726 -0.17909715 0.09044829 -0.032565054 -0.039716497 0.08906488 0.0028139162 -0.055322714 0.09784684
without 0.045784466 0.05172266 -0.0071131797 -0.020069525 0.04092217 -0.03973754 0.01788578 0.046154797 -0.06776197 0.0007713976 -0.06207141 -0.027478758 -0.030090168 -0.020194514 0.017457679 -0.00911477
always -0.045710474 0.20941322 -0.022846384 0.01954133 -0.09465173 0.038096707 0.05195991 -0.0745986 -0.13728349 0.074868485 0.055209506 -0.037509095 0.07600235 -0.013105078 -0.069870256 0.056078583
times -0.022544986 -0.021061976 -0.037410405 -0.017765919 0.04300485 -0.010803438 0.009081911 -0.007313113 -0.069784224 -0.038402583 -0.027426157 -0.034896806 -0.035627324 0.029494442 -0.03093537 -0.015243713
comedy 0.015040607 -0.038129184 0.025535531 -0.0420351 -0.0029321455 -0.03137122 -0.03434207 0.08760326 -0.095915414 -0.015020367 0.0031893682 0.026332919 -0.073557466 0.0805653 0.02949179 -0.045576777
point 0.030874852 0.041827362 0.033544697 -0.07689063 0.07484129 -0.025578665 -0.04319262 0.04902452 -0.117828995 -0.07544862 -0.040039152 0.051149715 -0.05405693 0.10153851 0.07057149 -0.04470519
gets -0.0697702 0.055816866 0.008836068 -0.017323188 -0.0048419745 0.011257029 0.05702417 -0.0628157 -0.03573396 0.075794995 0.073549315 -0.011353233 0.0023276845 0.025945187 -0.07385231 -0.01628588
must -0.10251741 0.28998613 -0.050884325 -0.10388585 -0.09214878 0.05563866 0.04295592 -0.04487712 -0.22094627 0.09037961 0.025461998 -0.12151456 0.05023806 0.035771634 -0.054794315 0.08468831
come -0.0024461055 0.09814406 0.04146003 -0.124881394 -0.031950578 0.0041521997 -0.090398766 0.01825063 -0.10607302 -0.04469484 -0.05196369 -0.040092804 0.027353644 0.0785537 0.07048103 0.027751524
role -0.00886218 -0.0021428629 0.031930152 -0.06302883 0.059780464 -0.0092621995 -0.070543624 -0.015205721 0.052987296 -0.012555379 0.028576856 -0.0038463362 -0.045334928 0.060614772 0.022177393 -0.041559204
isn't -0.027909571 0.037340403 -0.04823651 -0.009917301 -0.068742864 0.0074696355 0.09311346 0.018536257 -0.19355825 -0.008103898 0.019459255 -0.034317832 0.010296595 0.028153233 0.0043612 0.032840747
saw -0.05438416 0.10212365 -0.05244778 0.016958052 -0.08321933 0.10461404 0.047915082 -0.043122523 -0.10576957 0.10979468 0.04481226 -0.019408911 0.05847308 0.0017308544 -0.09217295 0.03340593
almost -0.0043590167 -0.05589902 0.058829494 -0.115431964 -0.0154333785 -0.0017094051 0.0073776133 0.070583254 -0.1099366 -0.051171802 -0.046111304 0.047836494 0.010886649 0.018560998 0.065008454 0.013655686
interesting 0.047519963 -0.10896408 0.043647464 -0.027777895 0.058041554 -0.03968467 -0.025898455 -0.0017827686 -0.021038497 -0.042428385 -0.0032335273 0.009221294 -0.019091414 0.044170097 0.06393228 -0.049538493
least -0.0010270618 0.0059363106 0.01132702 0.04607932 0.03206602 0.013670022 -0.020734932 -0.02653675 -0.007932211 0.0011061244 0.015543468 -0.0047462853 0.0027325973 -0.05318587 0.013471121 -0.033188596
family -0.048517548 0.00059004244 0.031421226 0.046127953 0.027722785 0.036189806 0.038342807 -0.0032124543 -0.008909551 -0.013361334 -0.023874264 -0.05392874 -0.032194346 -0.03516371 0.015721057 -0.000120025405
done -0.017148027 -0.0041078147 -0.017707428 -0.034647897 0.007586318 -0.08085119 0.00089204987 -0.004679435 -0.0014652702 0.020788932 -0.07170712 0.017601268 -0.06097256 0.03293455 0.03728694 -0.066753864
there's 0.0043475116 -0.036289968 0.049643207 -0.123333365 0.08274246 -0.05259696 -0.029483998 0.090051204 -0.00063727336 -0.09832922 -0.06234007 0.05062221 -0.048034545 0.06531957 0.09393352 -0.018000688
whole -0.046221558 0.078924984 -0.030346924 0.0037796567 -0.08269054 0.080660656 0.036739547 -0.09076931 -0.19896235 0.087243475 0.0809604 -0.07960907 0.024806978 -0.0038542603 -0.093377605 0.124104746
bit 0.09749774 -0.016573701 0.053922348 -0.10817711 0.03503761 -0.06523554 -0.08646797 0.10284067 -0.071714915 -0.049220026 -0.046235364 0.047177654 -0.035104886 0.074419856 0.038702358 -0.089548625
music -0.0006471337 0.17094642 -0.066092335 -0.0366567 -0.023736363 0.015169953 0.049178302 -0.0053285253 -0.10418847 0.09599244 0.055442464 -0.09822432 0.0022107072 0.03536393 -0.013364325 0.097840175
script -0.022608723 0.18041658 0.024948966 -0.15172961 -0.0495805 0.05306882 -0.029913709 -0.012119811 -0.053489972 0.046280924 -0.05473498 -0.049770176 -0.045104604 0.008708487 0.044376686 0.023345968
far 0.026596542 0.045110717 0.013665756 -0.1175141 0.058208477 -0.0025926866 -0.013216624 0.038469188 -0.11750289 0.004075157 -0.053881656 -0.0053584375 -0.029644817 0.092136405 0.11865536 -0.049777944
making 0.022427116 0.065010436 0.0026338703 -0.022815403 -0.026902845 -0.021884179 -0.045459397 -0.032445252 -0.021470554 -0.032249995 -0.0026328727 -0.011695602 0.02242188 0.050271094 -0.037250075 0.050972715
guy 0.05040505 0.1888006 0.0135401795 -0.10607398 -0.0073561524 0.009469213 -0.02482136 0.025079567 -0.02453256 0.037517924 -0.06853834 -0.046853635 0.04442112 0.033742152 0.014977481 0.04174973
anything 0.02059919 -0.046106048 -0.008838214 -0.062933445 0.009432022 -0.08343937 -0.0075578173 0.05743923 -0.07345279 -0.047344696 -0.074248366 0.023838185 -0.075826466 0.021389252 0.03268713 -0.069279745
minutes 0.070340164 0.06621442 0.104404226 -0.11568662 0.12571572 -0.1062174 -0.094054736 0.04220428 -0.045024082 -0.11641004 -0.13860698 0.12296848 -0.08284574 0.13194576 0.12074152 -0.12659901
feel 0.04000845 -0.025775114 -0.02313036 0.023790345 0.027585782 -0.051837094 -0.017059624 -0.00418917 -0.04359973 -0.006851386 0.023540804 0.0333984 -0.009512693 0.042642284 0.0011185493 -0.020515516
last 0.031041522 0.08206009 0.06962086 -0.09996173 0.09316548 -0.04694475 -0.043788627 0.082759604 -0.08652831 -0.07504491 -0.11148911 0.057158537 -0.04006316 0.061302148 0.12395918 -0.039731972
since -0.06886897 0.15598819 -0.06304629 -0.07109035 -0.08977786 0.062465496 -0.0040554437 -0.08311485 -0.010709893 0.06690055 0.0053043463 -0.08323758 0.032610778 0.06595045 0.034377884 0.039184798
might -0.004775832 0.09291688 -0.05072726 -0.0040660496 -0.0010318141 0.059063885 0.039239954 -0.06775672 -0.14383769 0.02782404 0.05267262 -0.006785951 -0.0056120744 -0.013348004 -0.07087614 0.03857435
performance 0.026818946 0.07480795 -0.0067868903 -0.05362477 -0.0050497293 -0.037504937 -0.05484066 0.032254305 -0.110001236 0.014682664 -0.010305015 0.018381001 0.012043633 0.038908094 -0.00034497853 -0.06649213
he's 0.025835209 0.11365346 0.036258142 0.014950146 0.035083488 -0.013282424 -0.034627955 0.027685493 -0.08696177 -0.048909493 -0.03352411 0.04274842 -0.083509825 0.020305213 0.044918153 -0.03163465
2 0.08421138 0.012031414 0.04285953 -0.07285379 0.10366839 -0.05981819 -0.073616825 0.050877597 -0.0021842325 -0.05932165 -0.08437288 0.110677235 -0.008663381 0.037698146 0.02901003 -0.026107572
probably 0.029917883 -0.12813897 0.052988023 -0.057881042 0.02889584 -0.101287596 -0.061999593 0.052697632 -0.06443244 -0.090009466 -0.00045313512 0.054989908 -0.049909506 0.013661438 -0.010597624 -0.05613621
kind 0.038695946 0.16469096 0.028258089 -0.09392472 0.110608466 -0.069496766 -0.03280668 0.09104651 -0.03350691 -0.02726908 -0.03600553 0.060313635 -0.10907608 0.037017893 0.030282585 -0.11189845
am -0.0406586 0.15322961 -0.023760734 -0.06536991 -0.026836349 -0.010478926 0.010187245 -0.037993856 -0.21725519 0.019007307 0.016703865 -0.033202 0.035992127 0.019467723 -0.026760885 0.054629356
away 0.055373404 0.108223684 0.06571837 -0.13815117 0.043489173 -0.04924078 -0.05439028 0.034996707 -0.12038211 -0.0342274 -0.034860242 0.009496332 0.0064659053 0.10939578 0.05104543 -0.08713194
yet 0.028624557 -0.0025318058 0.04866601 0.0010410682 -0.03688399 -0.01887576 0.010332206 0.020980986 -0.045724384 -0.003200774 -0.00056516484 -0.005173436 0.037124086 0.045985203 -0.047194745 0.019099802
rather -0.08810906 0.26772153 -0.13783446 -0.07637463 -0.09274807 0.0459696 0.1131611 -0.0883434 -0.1972134 0.13680497 0.020721726 -0.10077382 0.08346292 -0.008553044 -0.01230525 0.13515024
tv -0.0012863533 0.15830919 -0.0135118775 -0.14450951 -0.0004152793 -0.022679267 -0.035907816 -0.02624373 -0.06843344 0.013391358 0.034469757 -0.022198083 -0.03605606 0.04920984 0.05394483 0.014059846
worst 0.13408977 -0.0038785501 0.2418072 -0.18111612 0.20238943 -0.21282083 -0.13936338 0.24381748 -0.17487465 -0.19096094 -0.19874702 0.23794699 -0.15497027 0.15574993 0.18200172 -0.23560356
girl -0.01517862 0.0070799077 -0.019301863 0.02422372 0.0159653 -0.0007764196 0.037451576 -0.010701011 0.033364095 0.021902455 -0.019687131 0.04003078 -0.022436306 0.016685138 0.0419387 -0.0019149478
day 0.026856279 0.12899609 0.0113269165 -0.19869177 -0.0348457 0.028392646 -0.031315386 -0.06881875 -0.045772478 -0.01053511 -0.03678411 -0.066380754 -0.035757825 0.06508166 5.5563636e-05 0.073929995
sure -0.04957836 0.1938527 -0.07342616 -0.08661853 0.0010944216 0.030521972 0.04170046 -0.0059078806 -0.099162154 0.0351267 -0.024507105 -0.07846183 0.017252995 -0.027197823 0.0027019244 0.011815195
fun -0.030750085 0.06314637 0.0016155806 -0.19174099 0.007378669 -0.021441914 0.0039183516 -0.012639288 -0.12038621 0.036146585 -0.088135 -0.020639399 0.004288538 0.049738288 0.020891758 -0.016604682
hard 0.04344202 -0.017827466 0.06844659 -0.08392689 0.0858705 -0.08192919 -0.009948783 0.08445799 -0.04539949 -0.03781624 -0.021198547 0.038544435 -0.06686298 0.010903269 0.10051904 -0.041636597
woman -0.0021818066 0.14035529 -0.016022166 0.011143679 0.040468592 -0.028463928 -0.031363048 0.04962275 -0.096527934 -0.053283606 -0.028168717 0.02928501 0.008450653 -0.0041592973 0.024216603 -0.06297245
played -0.04135921 0.06990888 0.032662902 -0.117989875 -0.046210617 -0.0016110769 -0.0442337 0.0019650739 -0.06806452 -0.0220875 -0.02503852 0.032046545 -0.025622018 0.057352416 0.042170797 -0.050658695
each 0.035970695 0.2164143 -0.021756772 -0.02292454 -0.024526862 0.04707436 0.030848464 -0.011105513 -0.14198218 0.037007473 -0.022245258 -0.0064706192 0.0071703284 0.051815066 0.0048351954 0.053592775
found -0.02616419 -0.09778713 0.045494374 0.020636303 0.048306502 -0.036460407 -0.045504015 -0.032463927 -0.023559794 -0.0061798086 0.004239681 0.032050204 0.05209237 0.0036660214 -0.027676485 -0.064454935
anyone -0.007255253 0.18710342 -0.026592694 -0.060924042 0.0017034314 0.026431903 0.04237925 -0.0078696925 -0.015730094 0.051718056 0.041682933 0.0051037646 0.0069659213 -0.06374474 -0.05448961 0.03235311
having -0.09295619 0.09146953 -0.015693642 0.07478388 -0.053496808 0.063388236 0.05320162 -0.014546454 -0.11706222 0.074875966 0.027573299 -0.070702605 0.0052613397 -0.008221784 -0.079996035 0.07447835
although -0.040473398 0.21603602 0.019109508 -0.010062639 -0.022820774 0.05507431 0.033246584 -0.016212743 -0.016787127 -0.032878816 0.0018630933 -0.0025688529 -0.02765917 0.019536236 0.0057802643 -0.024515143
especially 0.03210738 0.0434622 0.045465294 -0.042056385 -0.049581554 0.010514601 0.011938602 0.03268884 0.012064757 0.028185612 -0.008770111 -0.033538066 0.034676533 -0.041180316 0.0520033 -0.03759283
our -0.055565674 0.18971254 -0.020469168 -0.063441455 -0.0673665 0.13346781 -0.021617241 -0.103634775 -0.14848371 0.069227785 0.028656278 -0.069841936 0.0029127998 -0.01199874 0.0015777111 0.103787296
believe 0.026322044 -0.03106281 0.029481864 -0.038682647 -0.014969068 -0.033194322 -0.00089879736 0.028037151 -0.03987621 -0.054540835 -0.008720723 0.024099292 -0.05480988 -0.04191285 0.018596 0.034361582
course 0.04118653 0.033610314 -0.0052456334 0.048762765 -0.013482106 0.01837158 -0.011947157 0.033609744 -0.0067100325 -0.041302927 -0.03437571 0.03193617 -0.02407523 0.018021708 0.029311955 -0.025991477
comes 0.0007402785 0.095029615 -0.023111627 -0.015025132 -0.020518342 0.04679762 0.057730917 0.0059425817 -0.062414624 0.031623628 -0.003935502 -0.01563527 0.03769111 -0.008018134 -0.04036739 0.018404307
looking 0.0224749 -0.057159904 0.05739392 -0.04374898 0.06187153 -0.034321986 -0.00042257173 0.008256532 -0.09486159 0.005549528 -0.05281051 0.061760772 0.0034302934 0.04231483 0.05116744 0.021060342
screen -0.0041331933 0.21535543 -0.017973164 -0.10217514 -0.07447498 0.10549431 0.03955731 -0.100800306 -0.10004945 0.023353342 0.044494644 -0.15130463 0.03674643 0.018615332 -0.0018148815 0.088173494
trying -0.10230262 -0.056619253 -0.1032455 0.06411897 -0.105626516 0.083691515 0.07000846 -0.07442501 0.054120336 0.058213737 0.01654254 -0.047052726 0.10537629 -0.062457327 -0.05972184 0.06659529
set -0.018412754 0.13869846 -0.08992168 -0.0223831 -0.014569612 0.01905542 0.025337022 -0.09628181 0.021372799 0.041692927 0.07687924 -0.06882541 0.025954345 -0.002529451 0.0037666785 0.061523102
goes -0.04215366 -0.01677822 -0.053455096 0.09838199 -0.09503872 0.05348524 0.042716563 -0.12197472 0.031924624 0.12401039 0.086770274 -0.032498997 0.06618114 -0.08011797 -0.09597008 0.032242417
looks 0.032274976 0.12171386 -0.005815867 -0.045428608 0.05200919 0.039898694 0.027653662 -0.01378837 -0.123477116 -0.03531056 -0.051398624 0.016210245 0.03917094 0.07946615 0.045622855 0.00049054244
place -0.089319766 0.19703403 -0.08526442 0.05424718 -0.12039798 0.11997602 0.054503653 -0.06338526 -0.17516573 0.11364011 0.08438513 -0.07469442 0.10528559 -0.0649292 -0.0661019 0.11922835
book -0.007811792 -0.047843073 -0.039436225 0.027947333 -0.08875286 -0.0089664785 0.088204615 -0.038305204 0.056146234 0.05261127 0.04450462 -0.0043727467 0.015160962 -0.083002254 -0.06772619 0.054720663
different 0.008091261 0.024054475 -0.04127824 0.0027259164 -0.09728716 0.087994404 0.084864 -0.06220041 -0.064492986 0.04498842 0.0579588 -0.05302362 0.0008522979 0.023893207 -0.023262674 0.07584993
put -0.09200244 0.20129608 -0.042215355 0.0497045 -0.071026556 0.03679546 0.09227651 -0.11003729 -0.0765538 0.052675173 0.07245042 -0.10522543 0.040056873 -0.045660075 -0.0326441 0.06969565
ending -0.01129514 0.16068712 -0.053238027 -0.1235352 0.030263176 0.0668007 0.0062553687 -0.012709474 -0.042169236 0.089467704 -0.01374163 -0.019059725 -0.055959385 0.081221335 0.077102594 -0.001938096
money 0.10779207 -0.16619688 0.08191585 -0.079672135 0.12033826 -0.090660915 -0.1167604 0.07683371 -0.09152029 -0.14075719 -0.13356665 0.1259617 -0.07445063 0.12429269 0.055041272 -0.1841331
maybe -0.063757405 0.077016816 -0.06628694 0.0004638704 0.015740188 -0.012227895 0.011487634 -0.02518275 -0.079314575 0.02149436 0.025356725 -0.0511009 0.06432309 0.015712917 -0.06875146 0.082168356
once -0.058182426 0.124558 -0.10711089 0.06412284 -0.0719061 0.09479882 0.03675037 -0.07586 -0.044708807 0.08396672 0.05244323 -0.059246622 0.069473535 -0.039205547 -0.06406971 0.102467954
sense 0.064748 0.07722108 0.02174791 -0.102531105 0.063074015 -0.0673128 -0.00092556997 0.06656265 -0.052149165 -0.000960015 -0.03543733 0.026595011 -0.0850189 0.042121403 0.09914961 -0.061761007
reason 0.05650287 -0.03792841 0.08267789 -0.05617335 0.13156071 -0.122601055 -0.10927035 0.14171581 -0.121141426 -0.04511903 -0.14099537 0.08997936 -0.121798046 0.0597202 0.12444086 -0.11384157
true 0.019111237 0.051468864 0.04564879 -0.01969948 0.04627518 -0.071584575 -0.058225445 -0.0055912407 -0.08211972 -0.037533235 0.0045101587 0.0109480005 0.0005115717 -0.016007107 0.0617524 0.024874939
actor 0.02192936 0.06778955 -0.013393637 -0.030642327 -0.001313665 0.0061201416 -0.044006027 -0.0018116462 -0.0998716 0.02436072 0.020516228 -0.04248988 -0.00074247445 -0.03197956 -0.03958612 0.01475673
everything -0.008209534 0.16765146 0.008453587 -0.10105348 -0.026935197 0.041443463 0.062546514 -0.013050422 -0.14031695 0.013151274 0.022238633 0.008201365 0.016214743 0.04334555 0.041229907 0.021745754
wasn't 0.14749745 0.050083615 0.20218055 -0.22028069 0.21247235 -0.1565743 -0.14554161 0.16085972 -0.13132176 -0.16624457 -0.19932263 0.22125342 -0.17398618 0.2342961 0.1971891 -0.1889451
shows 0.015367966 0.09503496 0.005205309 -0.11478891 -0.026812524 0.008864229 -0.053644057 0.01613444 -0.09077896 -0.0076112105 -0.06474157 0.011022044 -0.049367867 0.0061613573 0.039859608 0.033594076
dvd -0.025231948 0.12430812 -0.09775508 -0.09715367 -0.024241477 0.07082393 0.008337694 -0.036731508 0.07109786 0.07736036 0.06633147 -0.042937372 0.04762266 -0.054838665 -0.096110344 0.0864422
three 0.0060866936 0.07619273 -0.004736561 -0.10261813 0.0044136364 0.051058188 0.018198436 -0.063877255 -0.028314305 0.080590285 -0.03993748 -0.06491778 0.047838353 0.018781357 0.0145304315 0.047022153
worth -0.096998565 0.23940562 -0.06858008 0.0074805785 -0.049176626 0.085916124 0.10264213 -0.08765089 -0.11009614 0.11854451 0.0834271 -0.1020851 0.032988023 -0.032330416 -0.06476065 0.04512851
year 0.04674806 0.14289334 -0.008438409 -0.19449681 -0.023968684 0.014784996 -0.06942714 -0.03182643 -0.08978667 0.04680862 -0.035619136 -0.07152034 0.021716392 0.008595665 -0.0023857118 -0.0011194308
job -0.0008671465 0.1395456 -0.033759117 0.030477518 -0.065045424 0.056552134 0.013347146 0.021964032 0.012304408 -0.007793588 -0.03126246 -0.058457445 -0.0057383236 -0.0018022214 0.026014727 0.044863302
main 0.06337391 0.14266124 0.033955183 -0.15050273 0.013128516 -0.010005341 -0.055655282 0.02863696 -0.10177111 0.013990935 -0.08477893 0.0050738542 -0.022430683 0.0617999 0.118589945 0.030574763
someone 0.1325464 -0.020387525 0.16637531 -0.12753788 0.15068911 -0.1301642 -0.11541826 0.15353376 -0.071992084 -0.1185997 -0.09508976 0.08571706 -0.15701921 0.115526095 0.14461331 -0.15353703
together -0.0022217315 -0.0020675426 0.03918737 -0.06471198 0.06764612 -0.009131665 -0.07037823 0.02409239 -0.07349765 -0.029977147 -0.0036663485 -0.011958391 -0.016062126 0.002149576 0.08243001 -0.024539227
watched -0.06328069 -0.096452564 -0.013956365 0.0062241945 0.008184049 0.0489816 -0.0052264733 -0.016733741 -0.05433365 -0.028906768 -0.017360691 -0.0044662994 -0.013832387 -0.04162019 -0.031203398 0.031755075
play -0.07880012 -0.007874523 -0.015035053 0.027238661 -0.06560913 0.04387398 0.05156674 -0.049551472 0.02279077 0.0105946185 -0.0087709045 -0.04856872 0.022665106 -0.0027849325 0.01294985 0.08213895
american -0.09291033 0.20170167 -0.13406138 -0.08029033 -0.121232554 0.104264684 0.03750059 -0.14213565 -0.14688024 0.10571079 0.027019573 -0.11191561 0.07397785 -0.010920065 -0.033888664 0.108282775
plays 0.048039295 -0.11030406 0.06654225 0.007132187 0.035080135 -0.025442671 -0.042936932 0.0050715553 -0.02410422 -0.010747354 0.0070796325 0.030685307 -0.017475741 0.07116571 0.049836546 -0.07996849
1 0.04087384 0.098130785 0.02822857 -0.2502956 0.061747987 -0.0074542793 -0.05301045 0.03420833 -0.16615 -0.07038397 -0.036121882 -0.018523516 -0.049154826 0.06789573 0.057981405 -0.067778386
said -0.031406645 0.10883591 -0.044854745 0.029120322 0.026412226 -0.018600529 -0.011887646 -0.032456487 -0.10454502 0.03182798 0.046579443 -0.018443054 -0.012275674 0.028055644 0.049050316 0.016863842
effects 0.018681904 -0.0025188662 0.01233058 -0.042310618 0.030686066 0.03918857 -0.009879297 -0.018964978 0.0184483 -0.012793027 -0.004203025 0.02790893 -0.048061527 0.04190278 0.029620953 -0.012697216
later 0.021179376 -0.0149790775 0.032614388 -0.021947354 -0.02338888 -0.009691771 0.0075206165 0.023405846 -0.073266506 0.0026843469 0.043466087 -0.015630092 -0.023710059 -0.04295003 0.020557387 -0.017265728
takes 0.033539236 0.052083172 0.088556506 -0.10353758 0.03067412 -0.097236685 -0.06541544 0.08784957 -0.13478577 -0.02472645 -0.049517218 0.052621227 -0.10466414 0.11712881 0.07455541 -0.11457032
instead 0.03294486 -0.078761995 0.029394288 -0.048197422 0.043059282 -0.112226054 -0.07443087 0.0960536 0.00359255 -0.04944213 -0.02702738 0.061092317 -0.0104045775 -0.0020029028 0.04530874 -0.022637552
seem 0.01958124 0.063680984 0.07449714 -0.0041086986 0.071073234 -0.0011097781 0.010398279 0.0025373476 -0.100717835 -0.025921358 -0.013531001 0.0015577201 -0.042610776 0.019986456 0.0034919376 -0.036243103
beautiful -0.091904655 0.1965131 -0.062287178 0.04136989 -0.13677356 0.10112249 0.087050505 -0.10955445 -0.17708176 0.08880266 0.089281686 -0.118933596 0.09544338 -0.062653184 -0.06288904 0.17784768
john -0.040209524 0.06896346 0.005420038 -0.10938979 0.0057285572 0.004907083 -0.02683422 -0.046776388 -0.076857224 -0.032256532 -0.03430821 -0.050159868 0.022844985 0.05715434 0.0394867 0.05366272
himself -0.013281615 0.14936197 -0.05749446 -0.20358495 -0.03504095 0.05842293 -0.027209353 -0.014326037 -0.017692432 0.03447392 -0.030100765 -0.07208876 0.017850656 0.049597997 -0.00067539164 0.09344882
version -0.08952616 0.27190775 -0.035246417 -0.15971363 -0.04967382 0.049404882 -0.010660577 -0.08512018 -0.113450155 0.07042866 -0.03768188 -0.18460228 0.0018052171 0.040251285 0.02345631 0.13505217
audience 0.0054008006 0.17212428 -0.042427823 -0.024350364 -0.041116565 -0.003144656 0.048091866 -0.064509876 -0.046587702 0.085465014 -0.050534323 -0.070921175 0.014777244 0.06009644 -0.041379683 0.067506745
high 0.021693414 0.016085325 0.004212794 -0.03413002 -0.015924556 -0.028366927 0.018646127 0.015406318 0.06280953 -0.04300016 -0.019851945 -0.00040777397 0.011577801 -0.025514694 -0.035919692 -0.010807623
house -0.04755199 0.28064165 0.0014864947 -0.15470313 -0.040847924 0.06840691 -0.007948127 -0.04260482 -0.026631031 0.122364655 -0.042270936 -0.06580435 0.029919047 0.076839805 0.052744627 0.0938152
night 0.097848654 0.12669541 0.0806682 -0.16269168 0.058283657 -0.0691826 -0.048262574 0.036139842 -0.14912863 -0.03171381 -0.029224446 0.07609325 -0.024637084 0.090716384 0.048797116 -0.040434834
during -0.027894847 0.062272247 0.014706258 0.013669557 -0.017179938 -0.04513844 0.010294569 0.018900998 0.04540426 -0.052175343 -0.021956708 -0.014774586 -0.06087058 -0.017151786 0.06965956 -0.010962409
everyone -0.06383803 0.053530227 0.045200225 -0.07664027 -0.017031834 0.0135143 0.021035599 -0.031265546 -0.1389242 -0.0062186243 -0.021921279 -0.036694217 0.010415152 0.04557733 0.0073517645 0.03657101
left 0.15321913 0.039676428 0.1328517 -0.13930203 0.10811104 -0.13701868 -0.08687967 0.13004005 -0.12286474 -0.09324976 -0.075940646 0.1194885 -0.16462438 0.117157675 0.11130739 -0.13442722
special -0.029921785 0.07248616 -0.05803461 -0.0028504448 -0.025375593 0.0533547 0.034436993 -0.011913436 -0.05253202 0.072566964 -0.0004658647 -0.014514119 0.054770872 -0.001021753 -0.073367275 0.05805143
seeing 0.086208574 0.023235112 0.054224864 -0.19635405 0.043536708 -0.023804968 -0.04290794 0.042029135 0.008263988 -0.01804371 -0.038438097 0.034500983 -0.0697374 0.118654765 0.11628269 -0.0038803543
half 0.08484256 0.086094856 0.11910788 -0.24756245 0.11536533 -0.05953065 -0.09830959 0.13160303 -0.15603615 -0.056315217 -0.18219402 0.009184663 -0.07112503 0.14743063 0.15551727 -0.10013473
excellent -0.109953865 0.24254169 -0.17361501 -0.058722213 -0.19603138 0.08801482 0.06928889 -0.10550911 -0.10109169 0.11974631 0.11203405 -0.21716478 0.060451947 -0.011667897 -0.07661392 0.11737849
wife -0.021102646 0.09964264 -0.09356253 -0.04867065 -0.035852153 0.041938376 0.04963594 -0.05110007 -0.14219366 0.07110097 0.0436102 -0.118355595 -0.010508783 -0.0093506845 -0.008420052 0.038777996
star 0.0030329123 0.19424805 -0.0052489922 -0.078781806 -0.027572453 0.0645139 0.02940429 0.00963358 -0.105302714 -0.004295005 -0.009378427 0.010206426 -0.02854419 0.0725886 -0.020282876 0.040124338
shot -0.0048721624 0.09798137 -0.049667053 -0.116348445 -0.03478882 0.021173187 -0.022567011 -0.012265046 -0.019116651 0.08009609 -0.032436267 -0.052622065 -0.011797895 0.09761276 0.0004098153 0.05583165
war 0.010804116 0.13856263 -0.047479317 -0.06815912 -0.05451104 0.043507982 -0.048298907 -0.0464704 -0.0069817607 0.05744517 -0.009713306 -0.06369791 -0.025079228 0.043844886 0.042749524 0.05540135
idea -0.042003524 0.10167496 -0.05945853 0.032294862 -0.056962278 0.048859138 0.04502188 -0.098833434 -0.073403955 0.037904833 0.01675432 -0.06366638 0.06357529 -0.059276246 -0.0085916035 0.052545495
nice -0.069258966 0.22215857 -0.10912377 -0.044064224 -0.089351416 0.042672656 0.04823604 -0.0722384 -0.14542887 0.105047144 0.10301166 -0.115553826 0.069995284 0.00642219 -0.10183166 0.09488793
black -0.0021367392 0.073640876 -0.05467971 -0.001344212 -0.040691316 0.013783442 -0.009082828 0.00632601 -0.02791787 -0.0057888017 0.028791975 -0.011942162 -0.01275015 0.025037607 -0.051541768 -0.0013186394
less 0.048573777 0.21857546 0.030481217 -0.07022584 0.0002692698 -0.004177927 -0.058508836 -0.015271771 -0.17422108 -0.046269722 -0.04034757 0.015081858 -0.049804874 0.09171286 0.026475651 -0.053340692
mind -0.1436796 0.12309579 -0.124458045 0.06770551 -0.17899401 0.18021892 0.10991145 -0.12567566 -0.049726512 0.11828046 0.068492435 -0.15678288 0.11989032 -0.08629034 -0.08795893 0.14306344
simply 0.024943292 0.12525554 0.043231018 -0.0746006 0.0632253 -0.011686801 0.004131092 -0.006439883 -0.031809855 0.010588031 -0.030763334 0.051657222 -0.013854659 0.015775485 0.07344246 -0.026033832
read 0.06635313 0.00518856 0.10891108 -0.008621345 0.10027809 -0.0440449 -0.047614567 0.052565552 -0.10187891 -0.05954146 -0.10715064 0.031676922 -0.062073722 0.06498106 0.08243439 -0.059170906
second 0.0012257823 0.08848137 -0.023263821 -0.047583085 -0.017499886 0.091442585 0.05748612 -0.094969615 -0.12838955 0.07028954 0.03805083 -0.056121767 0.04556369 0.046925552 -0.060081847 0.03728585
else 0.04642515 0.16363454 -0.04123097 0.008517073 0.044129763 -0.0048391735 -0.02740013 -0.031740416 -0.031588215 0.006086313 -0.03174205 0.020383442 0.03626358 0.054347645 0.04166646 -0.02875307
you're -0.02943875 0.08121634 0.01408125 -0.05859854 0.043384455 -0.007940021 0.031623524 0.07168053 -0.112246454 -0.02604151 -0.04308687 0.09153063 -0.033477068 0.026957076 0.023117986 -0.08339742
father 0.0077827596 -0.030762017 -0.04253922 -0.026378553 -0.05213431 -0.017293932 0.03642589 -0.03508957 -0.020865656 0.042554192 0.023686178 0.015417658 -0.020566719 0.011441597 0.013668823 -0.020086724
fan -0.006417551 0.13733548 0.007576994 -0.102537975 0.0059092776 0.04141472 -0.029925091 -0.07664176 -0.09010891 -0.008637564 -0.040149797 -0.00088419236 0.078412086 0.007091408 0.0035102542 0.0041381493
poor -0.02170267 0.111832865 0.0050433315 -0.0557698 0.06574593 -0.035111435 -0.0018964758 -0.0055830334 -0.13938788 -0.047605522 -0.02543435 -0.0011393917 0.0152155105 0.07641357 0.018363278 -0.00032708206
help 0.052099977 0.19653428 0.0121684065 -0.1920396 0.07674834 0.007951061 -0.04912266 0.07721681 -0.084868535 -0.0013779385 -0.05410964 0.0087661585 -0.0066751367 0.06321135 0.037579477 0.0033150208
completely 0.035424266 -0.026184767 0.026577873 -0.032011647 0.050830584 -0.00166918 0.040120818 0.005714181 0.035469994 -0.020095307 -0.041675415 0.025515271 -0.043104284 -0.027801927 0.03977891 -0.025443526
death 0.0072296797 0.18326262 0.027851032 -0.08884616 0.07139839 0.03442829 -0.021653732 0.071840316 -0.16593035 -0.05906151 -0.07202332 -0.0031037233 -0.06376618 0.08064277 0.11313359 -0.0034528996
3 0.01413679 -0.23021281 0.0883117 -0.11243599 0.15371962 -0.13591516 -0.03157731 0.14868937 -0.08412626 -0.090541385 -0.06676952 0.15020037 -0.096827276 0.09477669 0.11441744 -0.12497534
used 0.052423332 0.03773581 0.054365918 -0.07159296 0.075162776 -0.061003532 -0.09550903 0.04318284 -0.051783103 -0.0148157235 -0.055515558 0.06871148 -0.050557382 0.106233634 0.10194503 -0.11111393
home 0.019100768 0.2501757 -0.039123278 -0.13612182 -0.040867824 0.10667095 -0.029563949 -0.065071724 -0.08410334 0.07933449 -0.09320024 -0.18672435 -0.008032079 0.09919654 0.07975209 0.13063914
either 0.10841924 0.08423386 0.078666486 -0.06403666 0.105757475 -0.042889394 -0.1087014 0.12533142 -0.087716125 -0.08244586 -0.06661642 0.094601735 -0.092316754 0.041973475 0.050542727 -0.14592372
short 0.024501542 0.0977491 -0.0503712 0.037987273 -0.047552563 0.06819374 0.030869098 0.0015833206 0.013424487 0.0051306556 0.020792786 -0.030329004 0.069783784 0.00062418624 -0.030830534 0.06948645
line -0.027209917 0.03532175 -0.030115427 -0.013826656 0.03962888 0.025993481 0.04326522 -0.0155810425 -0.08432878 0.021724327 -0.040311404 0.04131336 -0.035680838 0.00546766 0.055068098 -0.022660134
given -0.049247026 0.15946813 -0.0013299228 0.03503079 -0.083292596 0.06777322 0.062624924 0.030422918 -0.10239208 0.026554963 0.06322655 -0.036569312 0.018476434 0.023055464 0.032833192 0.037938166
men -0.017278545 -0.022737384 0.025583189 0.05078526 0.021040209 -0.013112132 0.017566763 0.021227622 -0.081271976 0.02153095 -0.033401728 -0.030707093 0.0042637833 -0.016781518 0.009623667 0.010169838
top -0.06817785 0.09578262 -0.10566469 -0.091267824 -0.07077814 0.1251186 0.11972125 -0.071249746 -0.10264392 0.058574244 0.08673467 -0.12945913 0.09467974 -0.07800617 -0.047118254 0.15156014
dead 0.038622428 0.039047204 0.07452339 -0.098760396 0.13480912 -0.10004414 -0.100446805 0.115973435 -0.04060738 -0.09146328 -0.11733533 0.0895258 -0.122293234 0.06836179 0.09199783 -0.14322795
budget -0.00549796 0.045957416 0.005726456 -0.05518099 0.05715923 -0.030070132 -0.022243613 0.029697439 0.006584498 -0.063573815 -0.01631825 0.06824406 -0.00034465455 -0.0025500113 -0.014953891 -0.031234812
try -0.059081547 0.017434888 -0.060239542 0.00073456275 -0.030824848 0.051137928 -0.0027287416 -0.06535332 0.042081147 0.07726032 -0.01316006 0.004293894 0.011414262 -0.050987076 -0.02591244 0.010203227
performances 0.00059843954 -0.022430548 -0.01129659 -0.06736254 -0.0014253913 -0.046473302 -0.005487263 -0.028646868 -0.0027912986 0.01619573 0.039849695 0.030037414 0.024857963 -0.03628525 -0.032672856 -0.029016586
wrong -0.041869003 0.03566917 0.01264598 -0.06810391 0.020020653 0.044292763 0.01577096 0.04691702 -0.12525167 0.012922151 0.02645616 0.036867246 -0.027912725 0.049474686 -0.0014398698 -0.0026372378
classic -0.042450115 0.26582664 -0.085917786 -0.24681379 -0.080565535 0.100578226 -0.053632446 -0.08617999 -0.10297394 0.1012975 -0.058823574 -0.16067375 0.08252746 0.04574054 -0.052573413 0.09522417
boring 0.09468936 0.10822843 0.08309476 -0.06716111 0.12941264 -0.12356904 -0.07507525 0.07209714 -0.11728165 -0.03726039 -0.043641977 0.053039394 -0.056456085 0.12570238 0.12426123 -0.12628748
enjoy -0.09216652 0.19514938 -0.013248867 -0.17928123 -0.03973903 0.046659146 0.001411689 -0.08146475 -0.1335434 0.11902825 0.04690573 -0.12567773 0.062192988 0.06914271 -0.053491488 0.11298512
need 0.016501635 0.054864526 0.068977304 -0.119039215 0.0095554935 -0.0864453 -0.073787466 0.03972676 -0.07463431 -0.06534491 -0.02124417 0.019852469 -0.09339906 0.08756179 0.018324392 -0.021153191
rest 0.016568735 0.019193519 0.05285193 -0.0062869038 0.046993982 -0.034067728 -0.010481205 0.031333476 0.004858795 0.03299636 -0.017614592 0.04460194 0.024386765 -0.04795652 -0.055189054 0.020966548
use -0.04845523 0.20037001 -0.018315094 -0.027324816 -0.02671059 0.058153123 -0.034231886 -0.027363183 -0.10572766 0.027621858 -0.036857467 -0.053553235 0.0059962748 0.0036612644 -0.017050402 0.012041618
kids 0.0022905953 0.13257417 0.01875193 -0.09007821 0.016886193 -0.025147952 0.021568622 -0.017634904 -0.059149355 0.005548476 -0.04988067 -0.020578502 0.0026524158 0.093723506 0.027862877 0.0672726
hollywood -0.04740492 0.03712263 0.02090352 -0.039767034 -0.0059582815 0.014939555 -0.036391314 0.012831204 0.028253736 0.009810309 0.030911427 0.029295381 -0.008050716 0.007116435 0.030838357 0.020015763
low 0.014940036 0.21702427 -0.04603825 0.023555523 -0.038941894 0.09513556 -0.014387172 -0.07177342 0.015721986 0.031579338 0.030413529 -0.086288154 0.0011182764 0.024525383 -0.025079323 0.08677085
production -0.008026344 0.030152474 -0.014174474 -0.015292375 -0.031862635 -0.04635241 -0.025481876 0.0628308 -0.018887805 -0.028906452 0.037256658 0.02394898 -0.034987297 0.0027132537 0.04194507 -0.0018011521
until -0.025624262 0.24584652 0.033227645 -0.103841156 -0.024997625 0.018237757 -0.031726267 -0.016098492 -0.08938406 0.044443883 -0.0001357167 -0.09707774 -0.01722146 0.068105705 0.031526778 0.041563816
along -0.023565091 0.058964178 -0.0016979325 -0.027486078 -0.01274928 0.0004085019 -0.00827004 -0.010869786 -0.056869354 0.03408716 0.039980974 -0.009419911 0.03583678 -0.021772632 -0.010509646 0.013929683
full -0.05829978 0.07988123 0.0013649305 -0.046320774 0.032850146 0.047999192 0.015336845 0.017032491 0.027405584 -0.0044708066 -0.009271402 -0.064304754 -0.02459709 0.05572818 -0.0097973915 -0.007833404
friends 0.0822385 -0.09801905 0.034081463 -0.06734518 0.092961825 -0.096129894 -0.007179211 0.02046001 -0.10806939 -0.043986112 -0.09173655 0.046678912 -0.045068223 0.015145583 0.04054741 -0.09032397
camera -0.012542161 0.17748463 0.00049990986 -0.020194327 -0.091113955 0.08687387 0.024291668 -0.04781809 -0.14858735 0.0034812454 0.025392087 -0.090693936 0.0519196 0.039679058 0.019042082 0.10091836
truly 0.09753224 0.010446869 0.07138976 -0.07726127 0.04662452 -0.07254553 -0.046838943 0.110744834 -0.10843323 -0.048774626 -0.12762982 0.114590526 -0.05461872 0.030507531 0.11537062 -0.036487434
women 0.1231539 0.013298597 0.11424808 -0.028447295 0.14431678 -0.10371257 -0.12226637 0.11782338 -0.05855436 -0.093217336 -0.13361812 0.047407337 -0.04596274 0.12012382 0.09649345 -0.10749712
awful 0.14333293 -0.061895743 0.15415102 -0.09291016 0.14067851 -0.11417017 -0.116125956 0.15350743 -0.1520938 -0.14657582 -0.11963505 0.17866239 -0.100537 0.13798103 0.14300692 -0.109877944
video 0.058802754 0.13805825 0.025887445 -0.14657857 0.069433115 0.027311059 -0.0841457 0.0060333163 -0.097295746 0.04081665 -0.1280098 -0.005693105 -0.042480174 0.08446733 0.13651001 -0.028220132
next -0.034517128 0.13890615 -0.03915779 -0.041796252 -0.07032706 0.03898061 0.00046351025 -0.038995225 -0.07418931 0.036788628 0.0060000797 -0.072808966 -0.0086783385 -0.039185323 -0.053639878 0.040619016
tell 0.006748867 0.016554283 0.02166626 -0.041618336 0.008297447 -0.044801634 -0.060925864 0.085475065 -0.021994209 -0.09482707 -0.013808995 0.07380945 -0.08450031 0.036799923 0.060018484 -0.022306696
remember 0.042220276 0.044120677 -0.03775161 0.027033184 0.034817316 0.019054024 -0.04230327 -0.014395083 -0.026206912 -0.036171325 -0.02174937 -0.018465307 -0.03088327 0.050019883 -0.0016198722 0.032796476
couple -0.03070113 0.09466962 -0.04684511 0.005576314 -0.029596722 0.009725537 0.024533145 -0.007389656 -0.08229459 0.030163484 -0.023297768 -0.042623736 0.0067884894 0.024391754 -0.030870749 0.01730228
stupid 0.112411216 -0.0039088926 0.12654652 -0.020072926 0.15240201 -0.10260323 -0.060015514 0.10128378 -0.104417 -0.12817109 -0.06495644 0.11360797 -0.1029805 0.051119536 0.13234992 -0.09021694
start -0.055375937 -0.14324187 -0.024345525 0.0015367966 -0.01124221 0.054970417 0.08808434 -0.0025211624 0.011541529 -0.013790673 -0.006150519 -0.05223977 0.059083156 -0.044521384 -0.02461917 0.06696522
stars 0.037204515 0.043452214 -0.011415692 -0.048943054 0.03201319 0.0075368835 -0.05582294 0.04333925 -0.04346694 0.011893072 -0.06705421 0.0025813465 0.0146994125 0.026053276 0.03883923 -0.029355543
perhaps -0.012389105 0.022869222 0.0068804803 -0.018814253 -0.0428396 0.030740326 0.06833117 -0.017945174 -0.07357689 0.025233645 -0.019697258 -0.0605028 0.05965548 0.027019378 -0.044737827 -0.011197549
sex -0.045640513 0.14151244 -0.064676724 0.016525634 -0.07187205 0.0805694 0.02755042 -0.08606347 -0.15752369 0.09866824 0.024188625 -0.012365528 0.04338532 0.016618688 -0.015555724 0.08684234
mean 0.0064774016 -0.06668253 0.08599683 0.017491557 0.08428421 -0.044510458 0.00061497005 0.0153008355 -0.07161656 -0.091542676 -0.055966567 0.0689936 -0.08953043 0.073608145 0.054436196 -0.014738997
came -0.007821339 0.0030061367 0.04695227 0.028525293 0.041201387 0.02750798 0.0018435881 0.0045451364 -0.020093977 -0.02229062 0.0071032494 0.048032496 -0.020992622 -0.012124951 0.036180105 -0.0023261758
recommend -0.055564575 0.17905511 -0.06409175 -0.24717216 -0.04437522 0.062444605 0.0012344493 0.023037804 -0.115142696 0.08008075 -0.018194657 -0.030504009 0.024266727 0.07279108 -0.0140095875 0.07733506
let -0.03952698 0.13155197 0.03705333 -0.13014318 0.030766293 -0.0012081729 -0.053560663 0.008077694 -0.11134329 0.022231419 -0.019045057 0.034929253 -0.038605526 0.05260101 0.04263429 -0.0024073438
moments 0.06520764 0.16653141 0.039604377 -0.12843005 0.06518052 -0.07484424 -0.09875833 0.09156927 -0.20316541 0.018821029 -0.07401747 0.017801758 -0.037988886 0.13390742 0.09065293 -0.030853124
wonderful -0.12594071 0.17563318 -0.047491744 -0.032972034 -0.09236769 0.12301512 0.011445118 -0.12115073 -0.0038320837 0.13994949 0.027938874 -0.123124115 0.04714231 -0.050611403 -0.06854551 0.10556202
episode 0.051488448 0.0011560871 0.078820616 -0.0666683 0.06185447 -0.03168976 -0.049094032 0.022103505 -0.11754903 -0.0027949256 -0.08848344 0.03918013 -0.0052098525 0.024353549 0.0068005305 -0.02180737
understand 0.109458104 0.12151223 0.0995748 -0.1565441 0.049166523 -0.12349169 -0.031315703 0.041513804 -0.11806428 -0.11651696 -0.050782945 0.06104669 -0.13135658 0.081708156 0.08979049 -0.11360209
small -0.015548225 -0.014258605 0.055930283 -0.038018342 -0.022385493 -0.019959824 -0.010898313 0.038903058 0.046701565 -0.020253148 -0.038818825 0.05001208 -0.027324747 0.05173061 0.061222915 0.01962703
face -0.02242479 0.1886482 -0.03228198 -0.08748134 -0.10241532 0.09341792 0.057167795 -0.024800802 -0.014082432 0.08871368 0.080311894 -0.05285696 0.082259186 0.018237 -0.0016642314 0.049137488
terrible 0.13131052 -0.0659608 0.10462587 -0.17637806 0.15132037 -0.09732862 -0.093358345 0.13709341 -0.08092901 -0.10078293 -0.13409826 0.08086321 -0.12042099 0.16687737 0.15159701 -0.08838196
playing -0.13001734 0.003742213 -0.14210811 0.0657772 -0.14501967 0.11801941 0.067493 -0.117808916 0.027795503 0.0954849 0.09498742 -0.07010178 0.07926888 -0.05273271 -0.050330125 0.099519
school 0.06888452 -0.10752792 0.057255775 -0.012562231 0.08651374 -0.093229674 0.01923805 0.08319733 -0.026771188 -0.09477061 -0.0022613863 0.029119361 -0.051088944 0.058197312 0.056834262 -0.10559484
getting -0.028408427 0.19741268 -0.07714433 -0.063395925 -0.052129135 0.073978886 0.0095502855 -0.003452644 -0.20441125 0.028915983 0.08096001 -0.04723147 0.07083688 0.013560949 -0.0007471939 0.010775334
written 0.08713196 -0.028342707 0.07206533 -0.05977373 0.12744282 -0.059413586 -0.055467065 0.11197946 -0.06022452 -0.069426104 -0.044256996 0.08025509 -0.11496521 0.1266419 0.12683648 -0.14633708
doing -0.026867546 0.14642575 -0.0149844745 -0.058878902 -0.02323499 0.018348016 -0.05258135 0.054848783 -0.08550258 -0.051407766 -0.0031428384 0.02364244 0.011117592 0.040959205 0.080796465 -0.031589307
often -0.1092207 0.17829983 -0.04722883 -0.08245283 -0.0576006 0.08955621 0.09750891 -0.098104 -0.20514266 0.1220263 0.04362954 -0.060354296 0.08129356 -0.051173136 0.011942997 0.04363415
keep -0.030502493 0.065068394 -0.027778793 -0.088639304 0.05880031 0.036762286 0.020912165 0.016444677 -0.11008114 -0.051312737 -0.07198552 0.009370304 0.012653805 0.037573565 0.07921207 -0.007868942
early -0.032688446 0.010775663 0.020326737 0.0032651378 -0.0091603855 0.02175759 0.05909107 -0.041324984 -0.0061823195 0.057160035 0.026153386 0.025081242 0.03062663 -0.062345583 -0.030854322 0.045863938
name 0.13701735 0.14477688 0.07403121 -0.20439994 0.16654734 -0.08831872 -0.09344408 0.12523636 -0.20146263 -0.08703071 -0.10981985 0.14038087 -0.1609204 0.15519604 0.18928115 -0.11548988
perfect -0.03744925 0.12247129 0.021278985 0.010949543 0.012972886 -0.0104768975 -0.047014702 -0.019255526 -0.17027254 0.009813088 -0.028315742 -0.02243626 0.035196465 0.0027749236 0.026347253 -0.01835212
style -0.011683861 0.2632677 -0.041906893 -0.11030111 -0.103248306 0.11887856 0.008084882 -0.0853073 -0.16235362 0.11418107 0.039270066 -0.10119244 0.031097146 0.052756466 0.031699255 0.10997074
human -0.0069532166 0.13434799 -0.02205663 -0.053003274 -0.04861458 0.014076712 -0.04666367 -0.0116290385 -0.09193872 0.05226168 -0.011055469 -0.03656478 0.05945323 0.0040726922 -0.012841599 0.008003798
definitely -0.06459153 0.19785759 -0.08843126 -0.061216615 -0.058646988 0.11889162 0.11208257 -0.056463815 -0.32691625 0.08813598 0.012503951 -0.11030631 0.1018758 0.04059225 -0.059384976 0.09349165
gives -0.07678732 0.17007706 -0.11515154 -0.0035174335 -0.04353224 0.07116134 0.063826025 -0.11879755 -0.20066313 0.104601406 0.061710842 -0.11589532 0.0036739002 0.009596288 -0.03850216 0.12544096
others 0.019823007 0.024909154 0.054308042 -0.045344055 0.054731216 -0.04766449 -0.060831495 0.055695437 -0.114849806 -0.084690474 -0.11688093 0.057930317 -0.048901483 0.06349018 0.10089095 -0.08516311
itself 0.03877492 -0.019146414 0.12752013 -0.07838506 0.092238314 -0.12946644 -0.13585934 0.08857042 -0.15207396 -0.08965001 -0.13517626 0.10236792 -0.11378815 0.098130085 0.12398915 -0.10903795
lines 0.011784997 -0.07185904 0.022958579 -0.037895437 0.054148477 -0.07070826 -0.03405076 0.04991329 -0.027132489 -0.052740682 -0.0129647255 0.001482793 -0.060166106 0.034635905 0.024808273 -0.04769953
live -0.07959858 0.13307698 -0.07751005 -0.03886425 -0.03731088 0.057000656 0.07335163 -0.019101942 -0.0763109 0.082240164 0.00824907 -0.11294127 0.01740318 -0.033117063 -0.028948758 0.09513735
become -0.034648336 -0.099390276 -0.096958525 0.042598635 -0.015114459 0.007589905 0.027562544 -0.041773472 0.059294555 0.07398913 0.04532238 -0.08145853 0.10076211 -0.051742997 -0.09301489 0.07372431
dialogue 0.038972013 0.17858645 -0.014978202 -0.0830486 0.015692638 -0.03347013 -0.028303117 -0.022016164 -0.14833063 -0.016184734 -0.011990447 0.044498928 -0.057041734 0.03929011 0.06462526 -0.042400423
person -0.048630632 0.06352075 -0.0058307056 0.021961715 -0.0893179 0.079867534 0.022055402 -0.011616332 -0.0073586213 -0.01674777 -0.012221064 -0.06967175 0.009904271 -0.021690963 -0.08066966 0.05577173
lost -0.0042081843 0.021096028 -0.002509165 -0.0009528054 -0.032470696 0.016633354 0.05192044 -0.0061065066 0.05196249 0.06840916 -0.028118644 -0.0103440005 0.05972061 0.030919021 -0.005724876 -0.0046135206
finally -0.038075883 0.12381979 0.033222694 -0.056915782 0.021228386 -0.0075663095 0.02652665 -0.009583228 -0.043735996 0.0545481 -0.011649539 -0.042765766 -0.008108063 0.008994573 0.0677451 -0.011756558
piece 0.06424724 -0.0216254 0.06959831 -0.0063479934 0.06962779 -0.110011704 -0.08494993 0.06208719 -0.011663107 -0.042870115 -0.09120323 0.052262776 -0.014268947 0.0959977 0.021339033 -0.096423246
head 0.1623168 0.0168437 0.13022959 -0.19248322 0.21138757 -0.12864673 -0.12628257 0.19968958 -0.13484076 -0.14372697 -0.1287277 0.17725573 -0.17725612 0.15235162 0.1630621 -0.20037432
case 0.113822944 0.06676918 0.091103695 -0.13604906 0.1684566 -0.11722546 -0.15894619 0.11808611 -0.13873914 -0.07492305 -0.13779968 0.07245409 -0.13046837 0.1814185 0.14782357 -0.15974194
felt -0.068940334 0.11492751 -0.042723607 -0.014441606 -0.0514499 0.008410847 0.038918857 -0.07565034 -0.13864818 0.050688032 0.07514015 -0.029340846 0.05807925 -0.044402115 -0.035622068 0.06278469
yes -0.02936141 0.054625038 -0.027377393 -0.051130056 0.048583444 -0.037018284 -0.014455982 0.03381132 -0.08678712 -0.030609088 -0.015955126 0.019469636 0.023970323 0.0002606143 -0.012644817 -0.050316315
liked -0.0739324 0.1621049 -0.014225606 0.01159177 -0.032683417 0.1159246 0.06251416 -0.059690997 -0.052406058 0.049061783 0.06973084 -0.10001917 0.023767382 -0.04028245 -0.008244882 0.101940334
supposed 0.050927494 0.06531838 0.026850421 0.009009597 0.1078078 -0.07244762 -0.05067258 0.04480114 -0.056016758 -0.10001231 -0.10068414 0.060830448 -0.058381177 0.100567155 0.019876236 -0.07809199
title 0.106885776 0.18479177 0.06648831 -0.14235055 0.05013258 -0.01842013 -0.058407493 0.028272742 -0.14152364 -0.02473811 -0.0802782 0.030526327 -0.09874412 0.15335877 0.14871149 -0.10260797
couldn't 0.046806503 -0.032206584 0.14522354 -0.09209192 0.10747499 -0.07049204 -0.11748048 0.1400306 -0.063411176 -0.073798925 -0.1073539 0.08864654 -0.084658265 0.10097233 0.09242273 -0.06191365
absolutely 0.0450615 0.15298285 0.04853091 -0.10251686 0.03548735 -0.05834503 -0.06529538 0.008876174 -0.19504961 -0.01783704 -0.014513949 -0.033196952 -0.018575935 0.014790753 0.00016725078 -0.0664804
white -0.0058978344 0.09708376 -0.000709198 -0.006115882 0.036518097 -0.002430662 0.03335778 -0.019754862 -0.07125548 0.005263681 -0.031671505 -0.05486437 -0.008516886 0.047686026 -0.028625011 0.056174487
against -0.03350365 0.004725367 -0.06994865 0.046815336 -0.012770871 -0.017195517 0.08572967 -0.05434722 0.055283774 0.06283468 0.05649939 -0.005424309 0.06987761 -0.067283615 -0.07602406 0.013123569
boy -0.039961535 0.0039132787 -0.0010490218 0.032552645 -0.02283131 0.0077880886 0.029758953 -0.028680285 0.041546002 -0.016864782 0.060569134 -0.0477689 -0.012638477 -0.024032684 0.011603088 0.0027205318
picture -0.04660898 0.030930925 -0.01969312 -0.0041942066 -0.030435316 0.04680516 0.0030821918 -0.0015946906 0.011494394 -0.0006823 0.040666662 0.009852052 0.081052214 0.0020677524 0.0018847204 -0.02100884
sort -0.08663997 0.026699642 -0.074122995 0.038821995 -0.028897341 0.026202805 0.09198645 -0.08410008 0.016607936 0.05172789 0.054510586 -0.04681283 0.048591055 -0.08318478 -0.09700339 0.021772657
worse 0.03150339 0.13359678 0.020201653 -0.10321472 0.028537342 0.0058342 -0.05444283 0.065033056 -0.06612665 0.024497394 -0.01643871 0.029229762 -0.015777519 0.07823939 0.015206376 -0.04691231
certainly -0.016825328 0.21939033 -0.03291498 -0.12966152 -0.086215526 0.110211335 0.055558708 -0.018556315 -0.17405577 0.029609172 0.045141906 -0.086898625 0.007638483 0.031542324 -0.023527224 0.05146601
went 0.09215765 -0.069692045 0.08192695 -0.12425354 0.12982479 -0.054104716 -0.011561093 0.074843995 -0.09290404 -0.06284662 -0.049504973 0.08746223 -0.06506323 0.11113111 0.03920138 -0.04953253
entire 0.05669287 0.18718618 0.054812755 -0.16228686 0.094897665 -0.03181661 -0.07054162 0.062206116 -0.12682645 -0.10728795 -0.16678661 0.062263623 -0.11955595 0.17183806 0.18957964 -0.10284196
waste 0.21602401 -0.04848704 0.24627103 -0.14057542 0.24004829 -0.17427312 -0.12696661 0.20110632 -0.11482101 -0.20086168 -0.16996142 0.21205159 -0.21150158 0.23554495 0.16793507 -0.23797186
cinema 0.03516272 0.15844655 -0.03748127 -0.09722566 0.0071556973 0.05330147 0.0007681555 0.021343179 -0.16382064 -0.03090563 -0.014850482 -0.044231597 -0.043874685 -0.0008011309 -0.024901835 0.010009298
problem 0.05971548 0.09178418 -0.006791017 -0.011174357 0.024212886 0.012502748 -0.039847042 0.011830634 -0.009619982 0.03149728 -0.058154967 -0.03390298 0.0057759685 0.058323447 0.008254899 -0.021396914
hope -0.047166735 0.017367596 -0.025936617 -0.029897703 -0.009097877 0.020969711 -0.02620548 -0.038830634 -0.05281699 0.016781257 0.0030563145 0.012754928 0.022823384 -0.0039683273 -0.02295876 -0.0057429713
entertaining -0.018654149 0.071348846 0.06713449 -0.18221729 0.050078884 0.0049743447 -0.010182925 0.08272317 -0.14030012 0.020465076 -0.03167853 0.05802498 -0.032794457 0.09397603 0.10596157 -0.02115852
she's 0.040795237 -0.02055646 -0.003184176 -0.08211223 0.07251722 -0.04327371 -0.012646696 0.082584575 -0.016515922 -0.027723264 -0.01730366 0.04573782 -0.08854868 0.0820898 0.042222034 -0.074246414
mr -0.010092988 0.034365315 -0.014867322 -0.0034541711 0.04001501 -0.04301407 0.041212227 -0.04936035 -0.094407946 0.008348134 0.030458126 0.0069196504 0.0018613186 -0.04393676 -0.04988533 0.050173916
overall 0.027636664 0.16921507 0.05309199 -0.0102816345 0.03673427 0.024242055 -0.02562504 0.03923287 -0.089001216 -0.061952107 -0.06864689 -0.032009773 0.008172917 0.020294735 0.04969489 -0.02441284
evil 0.0020409164 0.036267314 0.016449166 0.019471586 -0.0011090145 0.021771649 0.031028153 -0.016129538 0.044294365 0.0036020074 -0.009301228 -0.006019672 0.03421041 0.020491423 0.0024310714 -0.019655515
called 0.03728629 -0.011970188 0.041599963 -0.046802476 0.06644704 -0.07513963 -0.024624016 0.0911911 -0.08401809 -0.028833374 -0.07542801 0.07914681 -0.09727973 0.058344506 0.106368124 -0.11019073
loved 0.061820947 -0.019863449 0.052379202 -0.03468203 0.05824149 0.0028333503 -0.029741284 0.053714447 0.0032546322 -0.08404952 -0.051767793 0.04233443 -0.010152485 0.0057500745 0.05346635 -0.056680743
based 0.054880626 -0.043148544 0.0754711 -0.06604407 0.040148083 -0.06884745 -0.03240174 0.095032215 -0.0565236 -0.0447317 -0.0883344 0.07919685 -0.042642295 0.12683597 0.033501804 -0.045358986
oh 0.11490943 0.0039503286 0.117776155 -0.1289429 0.04253415 -0.045108072 -0.031188577 0.08242364 -0.09651387 -0.10864232 -0.05277686 0.11517563 -0.056024402 0.05560543 0.045515895 -0.037932828
several 0.061533958 -0.0429458 0.035959225 -0.067553945 0.010940225 -0.06858697 -0.085463285 0.03912256 -0.068038285 -0.07204622 -0.00660478 -0.0031129145 -0.09201364 0.005153641 0.035060126 -0.08348146
fans -0.010748417 0.028890714 -0.027011458 0.075484686 -0.0025460266 0.03482387 -0.0012094118 -0.038284212 -0.121616505 -0.047193516 0.027665876 -0.017805215 -0.017795766 0.0029615953 -0.055310093 -0.05230664
mother 0.009037406 0.13652684 0.0063072992 -0.110495515 -0.034714118 0.06183522 -0.049924187 -0.055312708 -0.07979427 0.09358245 -0.04780622 -0.07125782 -0.0057814843 0.055257924 0.073870845 0.05175888
drama -0.040382124 0.041389506 0.035845034 -0.17008163 -0.023235045 -0.033130717 -0.054545917 6.508433e-05 -0.013023783 0.020937752 -0.062007748 -0.023785673 0.011972819 0.00419953 0.0034492826 0.0389422
beginning 0.0022212986 -0.05357435 0.018571638 0.005267319 0.03173617 0.009947344 0.05329406 -0.024124946 -0.034684964 -0.035792965 0.012568179 -0.03568032 -0.0055322587 0.027182186 -0.006949103 0.008045135
killer 0.06988559 0.10262573 0.060464334 -0.11359716 0.06803552 -0.100929394 -0.07493088 0.11946091 -0.109224945 -0.067561574 -0.056802783 0.11977066 -0.08937583 0.13780393 0.151963 -0.13736266
lives 0.068632856 -0.007271035 0.020520912 -0.021186512 0.037373766 -0.04904447 -0.047827903 0.020727543 -0.10366429 -0.048160776 -0.041614078 0.0757228 -0.09002833 0.035986602 0.040434316 -0.052208345
5 -0.043372232 0.26658964 -0.050923984 -0.25513175 -0.024780804 0.09345078 -0.061688464 -0.08749498 -0.07854001 0.038732037 -0.018247744 -0.121746264 -0.0045033665 0.035741378 -0.0068619163 0.107540354
direction 0.08635852 0.0061894315 0.07972741 -0.0092994105 0.02327765 -0.038812608 -0.015957706 0.08778333 -0.019519994 -0.08557812 -0.037544526 0.13138485 -0.06992055 0.058487285 0.09465703 -0.13158405
care 0.09475917 0.08123889 0.11477121 -0.14682768 0.107107416 -0.10153598 -0.13624483 0.12050779 -0.198129 -0.0957687 -0.06811097 0.13363163 -0.14572829 0.092701964 0.15005158 -0.13277619
already 0.039943468 0.03652234 -0.015277387 -0.146816 -0.023734678 -0.013731603 -0.019595068 -0.0034051668 -0.097841606 0.066144936 0.00974061 -0.050995354 -0.03531456 0.034774043 0.022170005 0.044617895
becomes 0.01692883 0.1549329 0.00718056 0.014292235 -0.0037377332 0.053501822 0.002771799 -0.048727896 -0.01309376 0.078524984 -0.014092102 -0.03543693 0.04143677 -0.043569203 0.0329847 0.08263682
laugh 0.06945874 -0.018891886 0.05956696 0.0010331684 0.014267038 -0.04391449 -0.079816096 0.09247246 -0.04613341 -0.004178087 -0.0046273177 0.09489004 -0.07503442 0.0075323507 0.046676703 -0.08508664
example -0.024290448 0.09442315 -0.09776686 0.026975576 -0.09456995 0.042931546 0.03156183 -0.124990255 -0.10576174 0.1302409 0.07135079 -0.1454327 0.07982041 -0.07599196 -0.046675384 0.07553619
friend -0.059853986 0.14260101 -0.10190814 -0.09364527 -0.14149998 0.07979239 0.01840479 -0.08872103 -0.11637923 0.08548219 0.023937153 -0.11599424 0.072216235 -0.035655078 -0.09150624 0.14121062
dark 0.04991815 -0.03285872 0.0075714504 -0.094454415 0.074191876 -0.01541386 0.032160148 0.054408107 -0.09247229 -0.009684383 -0.067748345 -0.002421571 -0.029279742 -0.02252643 0.031422034 -0.04998599
despite 0.014302278 -0.07918332 0.050139196 -0.080684386 0.026932517 -0.098347135 -0.010563164 0.02565918 -0.0077111297 -0.09215638 -0.02307386 0.06937861 -0.06567662 0.00940368 0.049241945 -0.0813511
under -0.051310778 0.22823246 -0.022595758 -0.034428112 -0.12615618 0.045266848 0.077579245 -0.09085129 -0.04721115 0.086323455 0.030169645 -0.09199102 0.021502549 0.018370837 -0.008847823 0.04221136
seemed -0.034955595 0.03600538 -0.064441964 0.030938145 -0.047980394 0.0108185755 0.020438537 -0.011062132 0.045867972 0.057135448 -0.012583829 -0.025874676 0.030867442 0.0030638308 0.008396849 0.06346071
throughout -0.021506581 0.0014895166 0.008607134 -0.0119004985 -0.006171317 0.043041043 -0.026001269 -0.009918345 -0.04728357 0.03976335 -0.01570644 0.008741735 -0.04209261 0.043012556 -0.038485352 -0.0043466524
4 -0.021648357 -0.09391854 0.046772733 -0.12296119 0.091436796 -0.10843046 -0.05989733 0.065433845 -0.017326834 -0.1058088 -0.0746602 0.090449765 -0.040139616 0.02720187 0.012389165 -0.11033868
turn 0.034347143 0.079486765 0.06579931 -0.12078388 0.1429944 -0.08145462 -0.10215117 0.09194454 -0.0669353 -0.04778041 -0.1236142 0.080898315 -0.09620743 0.043226387 0.104897454 -0.082257934
unfortunately 0.0432037 0.06306371 -0.009636759 -0.034380943 -0.041272454 0.03184232 -0.032863207 -0.021512385 0.034622088 0.033386923 0.0003844729 -0.019118762 0.050505847 0.03697629 -0.019617693 0.045519184
wanted 0.018101161 -0.029500823 0.073088914 -0.030693175 -0.013928274 -0.073540255 -0.020092273 0.06423387 -0.019703796 -0.0032963115 -0.03735646 0.07341293 -0.06926332 0.056192104 0.00088391243 -0.024894949
i'd -0.12700781 0.03807443 -0.09747016 0.06941639 -0.1154758 0.062380083 0.16709264 -0.067679405 -0.009438106 0.15174918 0.13551103 -0.126404 0.12653187 -0.12922974 -0.09453269 0.12405209
 0.0057872017 0.123835936 -0.023521274 -0.054786477 -0.020116901 -0.017480345 0.005879215 -0.0071916706 -0.10970315 0.02705998 -0.0022054783 0.0009293341 -0.007404872 0.11298177 0.07321256 0.06608186
children -0.04467739 0.14513381 -0.031818304 -0.099283025 -0.07666201 0.09124389 -0.05960002 -0.03325117 -0.098966494 0.09898364 -0.03076734 -0.1058073 0.041234944 0.09458911 0.0413595 0.12826028
final -0.017473636 0.09870747 0.010642153 -0.045794662 -0.022921035 0.065785415 0.064519025 -0.04451578 -0.1185267 0.02611886 -0.0015382854 -0.06123962 0.040747933 0.003041079 0.021200081 0.053244863
fine -0.09558108 0.2203932 -0.12969631 -0.06690845 -0.11664682 0.0932089 0.05832032 -0.12845004 -0.22989513 0.10850674 0.094612814 -0.130469 0.032364458 -0.0628915 -0.08483042 0.099042505
history 0.02777391 0.12037718 0.005732453 -0.16734725 0.015837293 -0.009111578 -0.083020546 0.0072747758 -0.12366852 -0.015726902 -0.13615209 -0.015983494 -0.08835376 0.17001344 0.12549505 -0.045050174
amazing -0.02608415 0.23547396 -0.061897874 -0.044559456 -0.05389567 0.11201757 0.04800813 -0.09408804 -0.18230537 0.11431649 0.07340181 -0.08152608 0.09230979 0.0013525808 -0.038022198 0.064261094
sound -0.085689634 0.19804183 -0.035140518 -0.08461345 -0.10669279 0.05852982 -0.01675357 -0.021137679 0.010851511 0.11893419 0.029783307 -0.05059367 -0.0064138533 0.012469932 -0.0148399025 0.124542736
guess 0.12732661 -0.032228697 0.088708445 -0.109673545 0.18041825 -0.16214262 -0.067072295 0.13067782 -0.06706038 -0.12837473 -0.14662243 0.15953936 -0.07646604 0.10505649 0.13492903 -0.15043132
heart -0.04206461 0.21369998 -0.12012908 -0.040700145 -0.098857075 0.11690679 0.014402273 -0.06481307 -0.06533785 0.07882852 0.024460185 -0.13310547 0.112828135 -0.08017204 -0.022534272 0.09474015
totally 0.016206054 0.17590673 0.042884007 -0.033261836 0.023232235 -0.0023384844 0.013324966 0.030074926 -0.09374451 0.010638029 -0.00033606775 0.025992328 0.022621306 0.062025078 0.065124944 0.054260373
lead -0.030657688 0.023681154 -0.03813689 0.023472825 -0.007980514 0.015736496 0.057063617 -0.06546021 0.023641298 0.023932345 0.04127411 -0.063408546 0.03285677 -0.03781122 -0.09278467 0.03527947
humor -0.023733115 0.13707589 -0.027141314 -0.099395454 -0.03554398 0.046273742 -0.04769493 -0.029265678 -0.073171936 0.03252827 -0.049119495 -0.066350155 0.025062483 0.080929086 0.013713606 0.08757772
writing 0.031983707 0.005888623 0.04661883 -0.030870186 0.033686988 -0.02492308 -0.015645815 0.07869359 -0.15202785 -0.050697297 -0.061922066 0.07176421 -0.07365182 0.03458625 0.09162977 -0.05609942
michael -0.0026034608 0.12766415 -0.017254483 0.026108323 -0.05447886 0.031151157 0.073183134 -0.088378966 -0.059638713 0.0063146045 0.02135115 -0.0692706 0.07172727 -0.063522264 -0.018454008 0.04110179
quality 0.022185184 0.19936776 0.020208236 -0.09588767 0.050347585 -0.023410046 0.022962505 -0.007025925 -0.121180676 -0.0024668716 0.00717268 -0.057188295 0.020446615 0.021381337 0.03000952 0.005315633
you'll 0.025054682 0.10914842 0.013966292 -0.13331223 0.08282257 -0.06325207 -0.037119742 0.086817704 -0.09443283 -0.037469342 -0.092693 0.047055442 -0.050246555 0.10481693 0.119113036 -0.017332898
close -0.11128785 0.24081475 -0.14177829 -0.031456582 -0.10540909 0.16895825 0.122076236 -0.14764643 -0.25074455 0.18667684 0.029964808 -0.13712743 0.13749443 -0.031901274 -0.027953051 0.13831557
son -0.03094338 0.01184618 -0.0063574286 0.0067658005 -0.02345075 -0.00407088 0.021166623 0.010771862 -0.023224128 -0.03155104 -0.05673918 0.058344707 -0.025980072 -0.030271705 0.054227013 -0.03886255
guys -0.08332899 0.03131817 -0.0708641 0.05373033 -0.0658996 0.0102691 0.07919706 -0.0136513775 0.012049374 0.074390955 0.0705333 -0.027244123 0.019655595 -0.06979857 -0.06509508 0.035426907
wants 0.0001517109 0.0006115892 0.03594064 -0.0104222065 -0.011541391 -0.0038228175 -0.03850531 0.031979024 -0.061022945 -0.029263 -0.008540417 0.015895586 -0.005040224 0.020100754 -0.019926123 -0.01965718
works -0.060898677 0.24053544 -0.13930896 -0.16234706 -0.1554038 0.16836561 -0.09499749 -0.055600416 -0.12413268 0.19133069 -0.0640819 -0.23669475 0.03223485 0.119129404 0.121979676 0.19655764
behind 0.07963748 -0.020104209 0.120821975 -0.029636944 0.09869911 -0.10792457 -0.024167325 0.10461548 -0.12565075 -0.09093353 -0.09679831 0.129459 -0.08914767 0.113873124 0.1254597 -0.0635336
tries 0.079546936 0.03412988 0.0020441844 -0.06053865 0.011193764 -0.027057203 -0.075951464 0.016919222 0.0070217117 -0.052222252 -0.068732694 0.05596364 -0.07559686 0.04368585 0.05135037 -0.001874
art 0.051866714 -0.026019497 0.023373555 -0.030667964 0.038624022 -0.06927497 -0.03598356 0.06799232 -0.06496962 -0.045969922 -0.023830157 0.051354136 -0.04377992 0.031625777 0.032070994 -0.11174946
side -0.023835165 -0.0020526298 -0.04337808 0.051279824 -0.034443926 0.03902815 -0.02165877 0.008822037 -0.042563353 0.024572333 0.012489358 -0.019283352 -0.011422041 -0.046338946 0.018242178 0.00070001313
game 0.05184881 0.13812797 0.10284838 -0.03509942 0.058176223 -0.053304475 -0.010597081 0.09576119 -0.11093491 -0.05884954 -0.078415394 0.07833769 -0.06542921 0.095507264 0.101328634 -0.049808122
past -0.059524488 0.0149074625 0.038372654 0.020357827 -0.02919227 0.030545352 -0.0108700935 0.019263897 0.011380473 -0.0155018885 0.013779468 0.004067827 0.031950068 -0.019164043 -0.03272314 -0.001456162
able -0.027732965 -0.0010938944 -0.02111916 -0.0033543035 -0.017404962 0.02862519 0.084918514 -0.055189233 0.05642417 -0.010340698 0.012249476 -0.013833331 0.057344392 -0.016872538 -0.028186373 0.050288852
b -0.060140826 0.10721387 -0.12005258 -0.0582674 -0.111307696 0.07089339 0.09044252 -0.10094016 -0.028876673 0.074419424 0.11969902 -0.14748384 0.036890663 -0.006040607 -0.06841153 0.10162902
